cardinals	0.42252102494239807	-0.6817584037780762	0.08317101001739502	-0.07844553887844086	-0.49746209383010864	0.27122434973716736	-0.49307456612586975	0.452219694852829	-0.17868222296237946	0.030005618929862976	0.251966655254364	0.028389131650328636	-0.024976525455713272	-0.26700663566589355	-0.38237857818603516	-0.22626349329948425	-0.20947545766830444	0.4562090039253235	-0.15843939781188965	-0.22330616414546967	-0.11980076879262924	-0.2172662317752838	0.23771902918815613	0.0788462683558464	-0.5755929946899414	0.4825160503387451	-0.14816966652870178	-0.35621950030326843	-0.3692987859249115	-0.7657681703567505	0.11741107702255249	0.3361850678920746	-0.3440770208835602	0.38518404960632324	-0.39676010608673096	-0.18299399316310883	-0.18478630483150482	0.3829983174800873	0.2976190745830536	-0.376056969165802	-0.19337888062000275	0.022039735689759254	-0.5179341435432434	-0.20709557831287384	0.2662912607192993	-0.010833417065441608	0.2490941733121872	0.5232231616973877	0.6501525640487671	0.46636369824409485	0.47198784351348877	0.0481610968708992	0.010859892703592777	0.6540310978889465	0.3674513101577759	0.5894248485565186	0.26470160484313965	0.7434903979301453	-0.585739016532898	0.11854623258113861	-0.05565904080867767	-0.037347547709941864	-0.030653784051537514	-0.35852718353271484	-0.0069555495865643024	0.12734107673168182	0.46288231015205383	-0.006064724642783403	0.2754267454147339	0.025339050218462944	-0.685974657535553	0.19713734090328217	0.06539609283208847	-0.24603772163391113	0.24130617082118988	-0.053284838795661926	0.2432069480419159	0.13905736804008484	-0.17556039988994598	-0.03819790482521057	0.07472201436758041	0.6728832125663757	0.13557161390781403	-0.2902309000492096	0.43636244535446167	0.21333450078964233	0.26140618324279785	0.03969445079565048	0.2990753948688507	0.15217553079128265	-0.6319795250892639	0.15365666151046753	-0.4335486590862274	-0.03788180276751518	0.40164807438850403	-0.3589622974395752	0.017232026904821396	0.2962457537651062	0.09648679941892624	-0.6747124195098877	0.05484887585043907	0.316853791475296	0.7336277961730957	0.1171545758843422	0.6371542811393738	-0.370758593082428	-0.3071434497833252	-0.07757057249546051	-0.066944420337677	0.5240957736968994	-0.40771549940109253	0.22158819437026978	-0.5465908646583557	-0.5368673801422119	0.21915528178215027	0.24981200695037842	-0.2190982550382614	0.33214524388313293	0.013870440423488617	-0.25630491971969604	0.022935232147574425	0.4393220543861389	0.28625109791755676	0.018585003912448883	-0.14759594202041626	0.1790056675672531	-0.29910990595817566	-0.4827154874801636
falcons	-0.1542498618364334	-0.11622864753007889	0.48967406153678894	-0.2823010981082916	0.21352237462997437	-0.5128607749938965	-0.30068033933639526	0.08452591300010681	0.48050692677497864	0.7028244137763977	-0.7216870188713074	1.1902631521224976	0.33123815059661865	-0.27203047275543213	0.7262535095214844	-0.04277542978525162	0.26242607831954956	0.05583735182881355	0.5108808279037476	0.7248302102088928	-0.3809548318386078	-0.5918957591056824	-0.2907711863517761	0.20039989054203033	-0.5168942809104919	-0.07672984898090363	0.020135831087827682	0.07682181149721146	0.2750043272972107	-0.10619517415761948	0.05064794048666954	-0.033360786736011505	0.0938146561384201	0.1578625738620758	-0.2756880819797516	0.5733598470687866	0.015580453909933567	0.12411082535982132	-0.2233458310365677	0.6714629530906677	0.7558338642120361	-0.44223272800445557	-0.03173805773258209	-0.07605592906475067	-0.013836774975061417	0.06908529251813889	-0.135260209441185	0.12005452811717987	0.0392412394285202	0.3292725086212158	-0.3761152923107147	-0.048035211861133575	-0.39614373445510864	-0.12650100886821747	0.3285506069660187	-0.20390291512012482	0.2542765736579895	0.255135715007782	-0.5675216317176819	0.14731226861476898	0.3927856683731079	-0.27605605125427246	-0.18789856135845184	0.061845917254686356	-0.3963146507740021	0.9610427618026733	0.14364156126976013	0.1789579540491104	-0.4055929183959961	-0.43606501817703247	0.26819908618927	0.64351487159729	-0.3203151524066925	0.4920043647289276	0.30122044682502747	0.5929044485092163	0.05253278836607933	0.5935649275779724	0.743516743183136	0.6529034376144409	0.06971690058708191	0.6867609024047852	0.13618241250514984	-0.18231573700904846	-0.19566664099693298	-0.08140623569488525	-0.41640162467956543	-1.0928319692611694	-0.008583683520555496	0.4804271459579468	-0.08356861025094986	-0.028218407183885574	-0.08225276321172714	0.08050696551799774	0.334224134683609	-0.027213428169488907	-1.297648310661316	-0.5930891633033752	0.25151383876800537	-0.6149588823318481	0.43497008085250854	0.1878029853105545	0.1543426662683487	0.27304166555404663	0.48304611444473267	0.86128169298172	0.2884278893470764	0.15032954514026642	0.42190083861351013	0.25502103567123413	-0.3904329538345337	0.09916345030069351	-0.6103136539459229	-0.77849942445755	-0.16941700875759125	0.09458700567483902	-0.31196165084838867	0.10298291593790054	0.47685766220092773	0.21763159334659576	0.30478635430336	0.5710970759391785	0.28769010305404663	-0.8829597234725952	0.975151777267456	-0.07675187289714813	-0.5123119354248047	-0.009299852885305882
ravens	0.11245158314704895	0.40724554657936096	0.04889838397502899	0.5533285737037659	-0.603115439414978	0.21096661686897278	0.2613872289657593	0.2566402554512024	0.04312252625823021	0.5375322699546814	0.3064625561237335	0.4472655653953552	0.014224116690456867	0.21073602139949799	-0.17377884685993195	-0.4412653148174286	-0.18771085143089294	-0.3101619482040405	0.1359451413154602	-0.06079012528061867	0.11831966787576675	-0.5825565457344055	-0.17234911024570465	0.2361098825931549	-0.08851657062768936	0.08400695025920868	0.059484463185071945	0.4275558590888977	0.5968206524848938	-0.184123694896698	-0.09483581781387329	-0.3484307825565338	0.23768751323223114	-0.22394131124019623	0.03959839791059494	-0.10123065114021301	-0.3089873492717743	0.2926519215106964	0.2730102241039276	-0.15776866674423218	-0.22449395060539246	0.03417259454727173	0.5556074976921082	0.30036255717277527	0.11757178604602814	0.3404838442802429	0.07240341603755951	0.004586982075124979	-0.2162572741508484	0.2607114017009735	0.45055091381073	0.471017062664032	0.28906217217445374	-0.3005604147911072	-0.02642887644469738	-0.30863553285598755	-0.011418060399591923	0.3880453407764435	-0.32010069489479065	-0.06284309178590775	-0.3105265200138092	-0.41020679473876953	-0.4497092366218567	0.0017404669197276235	0.03175905719399452	0.073353610932827	-0.15979160368442535	-0.00023687255452387035	0.43107447028160095	-0.599101722240448	-0.5651929378509521	0.31177496910095215	0.41310915350914	0.26937437057495117	0.0458337776362896	-0.22992901504039764	-0.30159586668014526	0.28870299458503723	-0.13248208165168762	0.5602890253067017	0.16080103814601898	-0.3827068507671356	0.2557239234447479	0.08073583245277405	0.007312098052352667	-0.005900288932025433	-0.278165340423584	-0.02359997294843197	0.5703542232513428	-0.16507898271083832	-0.21356157958507538	0.29155096411705017	-0.10268480330705643	0.4254717230796814	0.10457869619131088	0.31072062253952026	0.13467423617839813	0.17346669733524323	0.14504778385162354	-0.37478286027908325	-0.24232517182826996	-0.05053713172674179	-0.14758709073066711	-0.24122008681297302	0.3544669449329376	0.6605713367462158	-0.036124296486377716	0.16878272593021393	-0.3325020372867584	0.05726763606071472	0.16492187976837158	0.04745129123330116	-0.212758868932724	0.16415463387966156	0.5205912590026855	0.2323233038187027	0.2935171127319336	0.42117419838905334	-0.011166409589350224	0.3411714732646942	-0.026401998475193977	0.28748953342437744	-0.3132868707180023	-0.6260252594947815	-0.27842238545417786	0.03584079071879387	0.37001967430114746	0.1035032868385315
bills	0.337422639131546	-0.7387701272964478	-0.05308220908045769	-0.06841687858104706	0.2953301668167114	-0.6446434855461121	-0.22480449080467224	0.017093999311327934	-0.18043451011180878	0.1919059306383133	0.31527823209762573	-0.059857435524463654	0.24721987545490265	-0.12747624516487122	-0.44297879934310913	0.0805438682436943	0.15998907387256622	-0.20467433333396912	-0.08549176156520844	-0.4780119061470032	-0.36554452776908875	-0.4293655455112457	-0.041468020528554916	-0.491192102432251	-0.4094443917274475	0.040778953582048416	-0.3702431321144104	0.19082266092300415	0.13180291652679443	-0.9377309679985046	0.13703088462352753	-0.3874208331108093	-0.3322516679763794	0.3171983063220978	-0.09586523473262787	0.66633141040802	-0.16257356107234955	0.2764374017715454	0.19649192690849304	-0.04427529498934746	0.7913286089897156	0.25395628809928894	0.018791887909173965	-0.4725823402404785	-0.3387329578399658	0.37965670228004456	0.14768332242965698	0.7587543725967407	0.5200493931770325	-0.03567291796207428	-0.5013734698295593	0.493325799703598	-0.13273528218269348	0.09032934904098511	0.4255494773387909	0.09525629132986069	0.6132724285125732	-0.3304775655269623	-0.7199755311012268	0.3984474241733551	-0.2629864811897278	-0.5560258030891418	0.11719156801700592	-0.3980165123939514	-0.7663936018943787	0.13277535140514374	0.40698349475860596	-0.10485775768756866	-0.24225354194641113	-0.30483105778694153	0.41026225686073303	-0.2875831425189972	0.9291768670082092	-0.2490009367465973	0.10180491954088211	-0.32622796297073364	0.42039668560028076	0.1251019537448883	0.10705068707466125	-0.5437440872192383	0.6076687574386597	-0.2231285572052002	0.11304952949285507	0.11899901181459427	0.6756413578987122	0.16440477967262268	0.17446917295455933	0.2065255492925644	-0.19049811363220215	-0.3180046081542969	-0.5555576086044312	0.22416825592517853	-0.0849563404917717	-0.10894326120615005	0.2069023847579956	-0.11769795417785645	-0.6385141611099243	-0.23771722614765167	-0.271122008562088	-0.49219292402267456	0.6268383860588074	0.14002813398838043	-0.37813228368759155	-0.5524556636810303	0.3371410071849823	-0.34643903374671936	0.19882513582706451	0.15294213593006134	-0.2284155786037445	0.2658759355545044	-0.6538940668106079	-0.20733880996704102	-0.357819527387619	-0.36940768361091614	-0.10848292708396912	0.4229344129562378	-0.3939661979675293	0.12860040366649628	0.38139885663986206	-0.4501366913318634	-0.022902464494109154	-0.28186526894569397	-0.0305474940687418	-0.2676064670085907	-0.14837417006492615	-0.047081757336854935	0.006445370148867369	0.34397363662719727
panthers	0.06255574524402618	-0.34450477361679077	0.3069375455379486	0.20834557712078094	0.007581654004752636	-0.009510193951427937	-0.043114662170410156	-0.10427532345056534	0.41260993480682373	-0.3477931618690491	0.1521044671535492	0.31677451729774475	0.2733324468135834	-0.1296727955341339	0.11150510609149933	-0.12675727903842926	-0.20093633234500885	-0.01715056784451008	0.09555096924304962	-0.15536384284496307	-0.17748329043388367	-0.3344120383262634	0.31979188323020935	-0.15869875252246857	0.5106716752052307	0.06201796978712082	-0.24598270654678345	0.17441417276859283	0.06744702160358429	0.38992738723754883	-0.20195108652114868	-0.19989094138145447	-0.09407579898834229	0.07252936065196991	-0.12099635601043701	-0.11644548922777176	0.2048388421535492	-0.01157296635210514	0.013397891074419022	0.16870489716529846	0.8104370832443237	0.21583588421344757	-0.04023715481162071	0.42675748467445374	-0.2542344629764557	0.39987996220588684	0.12637172639369965	0.044992029666900635	0.5464354157447815	0.2402798980474472	0.08046969026327133	0.22815528512001038	-0.3594426214694977	0.1531086564064026	0.2866172194480896	0.5335248112678528	-0.246786966919899	-0.09183462709188461	-0.9860865473747253	-0.7486797571182251	-0.21693260967731476	-0.4474557936191559	-0.2359912395477295	-0.3747994303703308	0.22814132273197174	0.23223407566547394	0.10065621882677078	-0.008885333314538002	-0.15119317173957825	-0.2955515384674072	-0.06697537004947662	-0.05479462072253227	0.39003926515579224	-0.5444710850715637	-0.7483685612678528	-0.46320560574531555	0.05885830149054527	-0.19792526960372925	0.2700217664241791	0.679347813129425	0.3342967927455902	0.026681507006287575	-0.022722503170371056	0.07904952764511108	-0.09145001322031021	-0.15035398304462433	-0.24379107356071472	0.1051478311419487	0.07790274173021317	-0.2804740071296692	-0.6175452470779419	0.4512898027896881	0.024852070957422256	0.386833518743515	0.088326096534729	-0.2916581332683563	-0.4542727470397949	-0.05322412773966789	0.4999130964279175	-0.4662488102912903	-0.058481231331825256	0.6368514895439148	0.5392057299613953	0.20387282967567444	0.20957264304161072	-0.28678926825523376	0.23225437104701996	-0.08270159363746643	-0.3600265681743622	-0.15921363234519958	-0.2935585677623749	0.2742689549922943	-0.07738229632377625	-0.6692831516265869	-0.0626278892159462	0.09732867777347565	0.1598822921514511	0.017698880285024643	0.4044446051120758	-0.07300638407468796	0.10433532297611237	0.0399298220872879	-0.09175542742013931	0.18591922521591187	0.34641796350479126	0.10763703286647797	0.11636874079704285	0.3444189131259918
bears	-0.4850451350212097	-0.6641719937324524	0.07351522892713547	0.028104102239012718	-0.2947160601615906	-0.0982702299952507	-0.009915621019899845	0.10148946940898895	0.2365577220916748	-0.33987897634506226	0.021597884595394135	0.6423889994621277	-0.041088540107011795	-0.09936517477035522	-0.16635902225971222	-0.29842036962509155	0.3215474486351013	-0.14353962242603302	0.5274434685707092	-0.057150110602378845	-0.6718180775642395	0.34872618317604065	-0.23286139965057373	-0.18118497729301453	0.47542086243629456	0.17588360607624054	-0.12271415442228317	-0.14171202480793	-0.07304910570383072	-0.3660506308078766	0.5439794659614563	0.32412222027778625	-0.4962623119354248	0.21777987480163574	0.769456684589386	0.21331648528575897	-0.649577260017395	0.15438759326934814	-0.6105002760887146	0.04710977151989937	0.3291712999343872	-0.006323981564491987	-0.5245461463928223	0.35370007157325745	-0.3159712255001068	0.18111452460289001	0.3361341655254364	0.5842405557632446	0.4672308564186096	0.08697464317083359	0.2026817500591278	0.311191588640213	-0.21833674609661102	0.6605632305145264	0.13046880066394806	0.18729035556316376	0.3726459741592407	-0.38476431369781494	-0.10188958048820496	-0.2722896635532379	-0.5103040337562561	-0.33513373136520386	-0.318825900554657	0.00817241333425045	0.3181610107421875	-0.25953924655914307	0.020193032920360565	-0.43953534960746765	0.15316914021968842	-0.5805686116218567	0.031331684440374374	0.1464802324771881	0.5335337519645691	-0.3851020336151123	-0.19243420660495758	-0.44327351450920105	0.7280858755111694	-0.3294728398323059	-0.5043574571609497	0.11381755769252777	-0.14216731488704681	0.32371148467063904	0.13060779869556427	0.37528079748153687	0.46765440702438354	-0.34587857127189636	-0.1236172467470169	-0.2141098529100418	0.7058919072151184	-0.6781748533248901	-0.7499916553497314	-0.06200248748064041	0.47141242027282715	0.3324836492538452	-0.09636244177818298	0.10398157685995102	0.1339501440525055	0.11232230812311172	-0.15767888724803925	-0.4674392342567444	0.03819361701607704	0.19509920477867126	0.3284294605255127	0.2127307951450348	0.39471274614334106	0.22351385653018951	-0.26607415080070496	0.18878762423992157	0.5910536050796509	-0.23131489753723145	0.2684165835380554	0.11646860837936401	-0.038813624531030655	-0.5945815443992615	-0.023465726524591446	-0.08442691713571548	0.3593268096446991	0.19584932923316956	0.4641188085079193	0.023114729672670364	0.06248188391327858	-0.20212134718894958	-0.531282901763916	0.14461840689182281	0.4350435435771942	0.45464110374450684	0.13224336504936218	0.3622034192085266
bengals	0.18038581311702728	-1.3728828430175781	0.1072186604142189	0.4293825030326843	0.718119204044342	-0.454363077878952	-0.7281659841537476	-0.2532678246498108	-0.42384544014930725	-0.021908946335315704	0.052966758608818054	-0.2194313108921051	0.011726618744432926	0.07778793573379517	0.05436651036143303	-0.06707552075386047	0.017591621726751328	-0.3587743639945984	-0.3949635326862335	0.06313692778348923	0.04538782685995102	-0.3712698817253113	0.5067233443260193	-0.386394739151001	0.09777612239122391	0.635925829410553	0.13461017608642578	-0.2071298360824585	-0.09987688809633255	-0.4987725019454956	0.26066434383392334	-0.14194956421852112	-0.15722422301769257	-0.15670563280582428	-0.16972242295742035	-0.2702038884162903	-0.2546224594116211	-0.06419094651937485	-0.038621604442596436	0.1753452569246292	0.2678087055683136	-0.3006541430950165	-0.3237217366695404	0.6690930724143982	-0.5220778584480286	0.7967736124992371	-0.41256579756736755	0.5764305591583252	0.6066265106201172	0.1908920258283615	0.40259262919425964	0.05699232965707779	-0.404530793428421	0.3317337930202484	0.13185381889343262	0.17721712589263916	-0.1694106012582779	-0.29316627979278564	-0.347835898399353	0.04106029495596886	-0.09419094771146774	0.20350834727287292	-0.152054563164711	0.5755763053894043	-0.6114120483398438	0.31926342844963074	0.23121029138565063	-0.04342189058661461	-0.3617118299007416	-0.4542594850063324	-0.14686082303524017	0.08313745260238647	0.1776508241891861	0.05005019158124924	-0.0008956608944572508	-0.06815862655639648	-0.23317983746528625	0.7336110472679138	0.268732488155365	0.23315304517745972	-0.6196790337562561	0.35421159863471985	-0.2844352126121521	-0.11604391038417816	0.0859706848859787	-0.2993620038032532	-0.3830084502696991	0.02464355155825615	-0.0525946207344532	0.611613392829895	-0.5112773776054382	-0.11610215157270432	-0.12123104929924011	0.2959906756877899	0.09243762493133545	0.0952560305595398	-0.8235442638397217	-0.3545902371406555	-0.18533650040626526	-0.0667429193854332	-0.14133131504058838	0.7879970669746399	1.1086028814315796	-0.19934386014938354	0.02330973744392395	-0.04407324641942978	0.08475089818239212	0.09586609899997711	0.06493569910526276	-0.1694861799478531	-0.3216370940208435	0.15524087846279144	-0.13209913671016693	0.06738051027059555	0.3211367130279541	0.7335436940193176	-0.12151630967855453	-0.1123415157198906	0.24105487763881683	-0.11762375384569168	-0.2726390063762665	-0.21202923357486725	0.21653199195861816	-0.4207686483860016	0.22985155880451202	0.08767712116241455	-0.42458704113960266	0.3973585367202759
browns	-0.10624826699495316	-0.853573739528656	-0.16045528650283813	-0.09693535417318344	-0.28563061356544495	-0.5081517100334167	-0.4106348156929016	0.17628003656864166	-0.29504701495170593	0.3716358542442322	-0.14316754043102264	0.8145832419395447	0.11724111437797546	-0.47843316197395325	-0.24359753727912903	-0.15966373682022095	0.4923137128353119	0.05908849835395813	0.4905785918235779	0.6402981877326965	0.26036739349365234	-0.06147005781531334	-0.3700264096260071	-0.15753722190856934	-0.7007510662078857	0.3488299548625946	0.37198665738105774	-0.5526930093765259	-0.12079479545354843	-0.8064397573471069	0.5297646522521973	0.4564400911331177	0.16411419212818146	-0.03715333342552185	-0.4653180241584778	0.5061237215995789	-0.5399801135063171	0.7425553798675537	-0.414741188287735	0.06948883831501007	0.6891525983810425	0.44259923696517944	-0.1522056758403778	0.31361690163612366	-0.2194652259349823	-0.10948466509580612	-0.36749833822250366	0.4781627655029297	0.1525302529335022	0.5095279812812805	0.1457594484090805	-0.007063192315399647	-0.29049575328826904	-0.4393448233604431	0.24961362779140472	0.07665171474218369	0.4704633951187134	-0.5687771439552307	0.20006410777568817	0.08356687426567078	-0.4282144606113434	-0.3933592438697815	0.2613314986228943	-0.15097881853580475	-0.560955822467804	0.49047917127609253	0.06108635291457176	-0.3816680610179901	0.13070876896381378	-0.37758341431617737	-0.03834764286875725	-0.539347231388092	0.1842188835144043	-0.977414608001709	-0.8644787669181824	0.2097902148962021	-0.39503055810928345	0.5320571660995483	-0.5427622199058533	-0.5226826071739197	0.5599965453147888	-0.7041472792625427	-0.23752173781394958	0.6370867490768433	0.08459129184484482	0.20127832889556885	0.32690608501434326	-0.7316151261329651	0.05184439197182655	0.3829401135444641	-0.5963218212127686	-0.22527976334095	0.12095289677381516	-0.01848570816218853	-0.035954345017671585	0.4687500298023224	-0.4041261374950409	-0.4871475398540497	-0.06944555789232254	0.34054651856422424	-0.1985522359609604	0.8249038457870483	0.6169525384902954	-0.3023201823234558	0.2598687410354614	0.1151600107550621	0.8621633648872375	-0.708636462688446	0.5299127697944641	0.4469636380672455	-0.2019992619752884	-0.4307783246040344	-0.06727238744497299	-0.5843310356140137	0.14390461146831512	-0.06357023119926453	-0.3599788248538971	-0.06550300866365433	0.058938950300216675	0.14928990602493286	0.6206307411193848	0.1515009105205536	0.20155110955238342	0.24255645275115967	0.42376407980918884	-0.4893937408924103	-0.48655980825424194	0.07251506298780441
cowboys	-0.026526762172579765	-0.017348598688840866	-0.03647887706756592	0.036727312952280045	0.00012234598398208618	-0.020255137234926224	0.03198239579796791	0.033811938017606735	0.04161990061402321	-0.0274371150881052	0.020712170749902725	-0.0250311978161335	-0.0232810378074646	-0.0034121647477149963	0.0031391270458698273	-0.019506430253386497	0.008708417415618896	0.028133157640695572	-0.02364429272711277	0.04943973198533058	-0.0434856079518795	-0.04225964471697807	0.03782855346798897	-0.002439308911561966	0.03419283404946327	0.034932542592287064	0.015529360622167587	0.02317441627383232	-0.02967963181436062	0.012813892215490341	0.02488568052649498	-0.011742651462554932	0.04266773536801338	-0.004125237464904785	-0.008218370378017426	-0.015399027615785599	0.04239547625184059	-0.035344887524843216	-0.0035850033164024353	-0.006554760038852692	0.036845613270998	0.02130807563662529	0.008841551840305328	-0.02373596467077732	-0.03228737413883209	0.017483104020357132	0.023350629955530167	0.016169201582670212	0.0307939313352108	-0.04540635272860527	0.010362815111875534	-0.006507493555545807	0.03272850438952446	0.005276717245578766	0.039365675300359726	0.025182511657476425	0.04835304990410805	-0.03299528360366821	-0.008929453790187836	-0.0048136599361896515	-0.013125680387020111	-0.04426708444952965	-0.00794076919555664	0.01853373274207115	0.040670741349458694	0.022267762571573257	0.030475351959466934	-0.027958154678344727	-0.02964884042739868	-0.008142340928316116	0.00018578767776489258	0.024855565279722214	-0.023428654298186302	0.0390794612467289	0.03567734733223915	0.0415368415415287	-0.0216545220464468	0.03937337175011635	0.026330817490816116	-0.00371391698718071	-0.041074156761169434	0.035447802394628525	-0.01153486967086792	-0.0325801745057106	0.02066672220826149	0.000697113573551178	-0.022453606128692627	-0.04844195768237114	0.02160138264298439	-0.02844480238854885	-0.04061919450759888	-0.04599041864275932	-0.029102934524416924	0.03526167944073677	0.03656342998147011	-0.010926652699708939	0.04659609869122505	0.04640908166766167	0.013426270335912704	0.008604418486356735	0.016604337841272354	0.03096264973282814	-0.010143496096134186	-0.043647993355989456	-0.018510200083255768	0.01899433508515358	0.004057835787534714	0.001270245760679245	0.005320750176906586	-0.027016794309020042	0.037647392600774765	0.0021836161613464355	5.265325307846069e-05	-0.013328038156032562	-0.02749958075582981	0.006184220314025879	-0.024186981841921806	-0.029772257432341576	-0.037144433706998825	0.0202273391187191	0.03515651449561119	0.014492560178041458	0.0251983143389225	0.006170488893985748	0.006040416657924652	0.004667200148105621	0.006843246519565582	0.01932353898882866
broncos	-0.318921834230423	-0.48264139890670776	0.5948753356933594	0.11762602627277374	-0.30829012393951416	0.5556039810180664	0.3623769283294678	-0.6914288401603699	0.14057330787181854	-0.0003660555521491915	-0.14805196225643158	0.049772366881370544	0.3437296748161316	0.6028003692626953	-0.05694876238703728	0.3081836700439453	0.28792816400527954	-0.21752320230007172	0.04374615475535393	-0.5823329091072083	-0.3600066304206848	0.5428775548934937	-0.38252320885658264	-0.3106192350387573	0.1988513171672821	-0.13845157623291016	-0.7101244330406189	-0.743434727191925	-0.32606181502342224	0.10434111207723618	0.2794770300388336	-0.5738940834999084	-0.21766674518585205	-0.612510621547699	-0.3869546055793762	0.10655058175325394	0.440521240234375	0.29073575139045715	-0.03502878174185753	0.14250116050243378	0.5366575717926025	-0.26157256960868835	0.16570264101028442	-0.3143128454685211	-0.5148568153381348	0.04805837944149971	-0.32800671458244324	-0.4256502389907837	0.15353728830814362	0.5642886757850647	-0.6836977005004883	-0.28584253787994385	0.009107474237680435	0.6704512238502502	-0.20188303291797638	0.0714273601770401	0.43240365386009216	-0.2728816270828247	-0.25052809715270996	0.484185129404068	-0.07284682989120483	-0.18908940255641937	-0.7439087629318237	-0.2710449993610382	0.2565329074859619	-0.7280899882316589	0.3782053291797638	0.13604523241519928	0.16111499071121216	0.36102041602134705	0.3790363669395447	-0.3319264352321625	0.10735388845205307	-0.4247871935367584	0.28732189536094666	0.6921684145927429	0.026419667527079582	-0.7202484011650085	-0.20076999068260193	-0.37440937757492065	0.3916028141975403	0.20951750874519348	0.3812373876571655	0.21532627940177917	0.16180768609046936	0.3725041151046753	-0.5033273696899414	-0.4079205393791199	0.1900777667760849	0.603367030620575	0.15856972336769104	-0.1895783394575119	0.42604362964630127	0.3947563171386719	0.47512030601501465	-0.2877955436706543	0.23679599165916443	-0.40612664818763733	-0.4456084966659546	-0.669550895690918	-0.4579181671142578	0.14597292244434357	-0.24049338698387146	0.5914307832717896	-0.40465086698532104	-0.19748662412166595	0.4250345230102539	0.7964890003204346	0.12134931981563568	0.002299281070008874	0.23414821922779083	0.32075321674346924	0.02476489543914795	0.4928523600101471	-0.28345757722854614	0.3313925564289093	-0.31458696722984314	-0.4944595396518707	-0.542243480682373	0.01356057170778513	-0.13855864107608795	-0.40884605050086975	0.5597779750823975	-0.24190188944339752	0.5034033060073853	-0.4442408084869385	0.5510080456733704	0.4635348916053772
lions	-0.38473933935165405	0.5328958630561829	0.5548838973045349	-0.2855609357357025	0.35146546363830566	0.15018758177757263	-0.41168615221977234	-0.46917062997817993	0.17571663856506348	0.008610627613961697	0.12710443139076233	0.10793258249759674	0.4149884283542633	-0.3875190019607544	0.19410419464111328	-0.5352088212966919	-0.17641933262348175	-0.03042423352599144	0.40454167127609253	0.22705167531967163	-0.060584597289562225	0.20407970249652863	-0.6550180315971375	0.23305900394916534	-0.15792033076286316	-0.45052623748779297	0.18625731766223907	0.36979132890701294	-0.15184907615184784	-0.2803727984428406	-0.11166621744632721	0.09454499930143356	0.1350693553686142	0.44573792815208435	-0.20185299217700958	0.0002071833296213299	-0.46293210983276367	-0.01118877436965704	0.08958376944065094	-0.09316088259220123	0.48661068081855774	-0.05763087794184685	0.178661048412323	-0.030090350657701492	0.018014781177043915	-0.22361615300178528	-0.024520374834537506	0.1903361678123474	0.41488805413246155	-0.012820910662412643	-0.5246948599815369	0.02882441319525242	-0.15246330201625824	-0.1565249115228653	-0.04787157103419304	0.5186871886253357	0.3571140170097351	0.10547873377799988	0.5183366537094116	0.44933566451072693	0.5527307987213135	0.6742395758628845	-0.3670075237751007	-0.41302481293678284	0.5301409363746643	-0.047789931297302246	-0.3021519184112549	0.14588713645935059	-0.09805748611688614	-0.0671035498380661	0.014049275778234005	-0.006726477295160294	0.029450802132487297	-0.16800826787948608	-0.03354399651288986	0.11529767513275146	0.12298645824193954	-0.14626088738441467	-0.45849230885505676	0.32299715280532837	0.390983909368515	-0.10321009159088135	0.14244534075260162	-0.07125820964574814	0.12550799548625946	0.7152090072631836	-0.2332076132297516	-0.21242639422416687	0.21180690824985504	0.6306660771369934	-0.0878589078783989	-0.5547817349433899	-0.37973251938819885	-0.33061549067497253	-0.1510399729013443	-0.1867530196905136	0.24069400131702423	-0.3384737968444824	-0.6596113443374634	0.26120027899742126	-0.5277643799781799	-0.0839608833193779	0.07937484234571457	-0.5082044005393982	-0.3559793531894684	-0.07022086530923843	-0.6740347146987915	-0.43120214343070984	0.5267239809036255	-0.6923223733901978	0.32542720437049866	0.19171379506587982	0.2141246348619461	0.4065714478492737	-0.614908754825592	-0.47516998648643494	-0.24826067686080933	-0.2445508986711502	-0.07701807469129562	0.2118164300918579	0.4512298107147217	0.14498375356197357	0.29413148760795593	4.992592948838137e-05	0.2049000859260559	-0.3686899244785309	0.555557131767273	0.07864848524332047
packers	-0.28595730662345886	0.10667593032121658	-0.479360967874527	0.31855508685112	-0.10730348527431488	0.0895286574959755	0.4792121946811676	0.10569683462381363	0.005011287517845631	0.24131472408771515	-0.2806442379951477	-0.2898101508617401	-0.0479842834174633	-0.25666722655296326	-0.04530559852719307	-0.22211934626102448	0.8030731081962585	-0.3793029189109802	-0.27516886591911316	0.4396640658378601	0.34671729803085327	0.4967957139015198	-0.13342149555683136	0.2109542191028595	0.04389384761452675	0.03621671721339226	0.3152681887149811	-0.00236892094835639	0.03855711594223976	0.14551717042922974	0.11429475247859955	-0.26173272728919983	-0.2522928714752197	0.2985486686229706	0.24847412109375	0.09074671566486359	-0.08453170210123062	-0.05490671843290329	-0.34928569197654724	0.1710636466741562	0.33140936493873596	-0.284361332654953	-0.07296659797430038	-0.0019858202431350946	-0.2219049334526062	-0.27184322476387024	0.1624019294977188	-0.14160926640033722	0.13975083827972412	0.10844931751489639	-0.5141805410385132	0.40431514382362366	0.3274449408054352	0.23420429229736328	0.1120884120464325	0.6249426603317261	-0.5937752723693848	-0.2896980047225952	0.11156632751226425	-0.23324322700500488	0.12287695705890656	-0.12693391740322113	0.3691425025463104	-0.16498622298240662	0.07004796713590622	-0.5713803172111511	0.16947497427463531	0.17739295959472656	-0.13690099120140076	0.16802096366882324	0.5322422981262207	0.16283546388149261	0.12617889046669006	-0.4901142716407776	-0.32250216603279114	-0.465760201215744	-0.808735191822052	-0.18484900891780853	0.38227471709251404	0.19930949807167053	0.37411028146743774	-0.2597552537918091	0.159113347530365	0.10894943028688431	-0.015676893293857574	-0.31899207830429077	-0.1401955932378769	-0.8645029067993164	0.8836619853973389	0.2054336816072464	0.43091168999671936	0.4536038041114807	0.2675214409828186	0.1334189623594284	0.30454251170158386	0.1100688949227333	-0.1913720965385437	-0.06971200555562973	0.37825703620910645	0.33839789032936096	-0.3323470950126648	-0.01771160028874874	0.27095356583595276	0.014073359780013561	0.36854687333106995	0.23931775987148285	-0.1457396000623703	0.022029956802725792	0.0073735457845032215	0.18845851719379425	-0.042619798332452774	-0.03407822921872139	0.36525624990463257	0.11115904897451401	-0.19341854751110077	0.16743220388889313	0.5913015604019165	0.06724345684051514	-0.18780384957790375	-0.3291160762310028	0.3799562156200409	-0.05719253420829773	-0.25038793683052063	0.3055022358894348	0.22979329526424408	-0.39213302731513977	0.3451695144176483	0.21849817037582397
texans	0.531078577041626	0.05341985449194908	0.12239079177379608	0.33428704738616943	0.08447632938623428	-0.6280286908149719	0.10712502896785736	-0.22623324394226074	0.8570478558540344	-0.2354467362165451	0.1719168722629547	0.33377277851104736	0.2060547173023224	-0.2090107798576355	0.0036982144229114056	-0.027298638597130775	-0.08383562415838242	0.1186821386218071	-0.05356798693537712	0.268059104681015	-0.3723621070384979	-0.15359289944171906	0.13829997181892395	-0.21793495118618011	-0.5661263465881348	-0.22322200238704681	0.010161601938307285	0.07532275468111038	-0.17796248197555542	-0.5159543752670288	0.2222733050584793	-0.09183350205421448	0.205600306391716	0.06804080307483673	0.10119938105344772	0.15157422423362732	-0.11095096915960312	0.09201525896787643	0.21241767704486847	0.15950791537761688	0.4436597228050232	-0.11209166049957275	0.31265372037887573	0.5775462985038757	0.28466665744781494	0.5193982124328613	-0.13683480024337769	0.22578105330467224	0.144206240773201	0.09765022248029709	0.2234591841697693	0.11957960575819016	0.13223230838775635	0.3758683502674103	0.40990015864372253	0.39212727546691895	0.4297371506690979	-0.5092341303825378	-0.01812364161014557	-0.40463459491729736	-0.26675164699554443	-0.687920868396759	-0.15626288950443268	-0.044805653393268585	-0.38118430972099304	0.32490235567092896	0.4042597711086273	0.5595187544822693	0.20636075735092163	-0.4180687963962555	0.12019795179367065	-0.09064434468746185	-0.025278357788920403	-0.5741317868232727	0.08118598163127899	-0.6331555247306824	-0.1361301839351654	0.06262034922838211	0.07419539242982864	0.5000110864639282	-0.13314040005207062	0.3162795305252075	-0.06786119192838669	-0.06255967170000076	-0.22768326103687286	-0.1969243437051773	0.012066006660461426	-0.21394026279449463	0.002404269529506564	0.11537271738052368	-0.8207250833511353	-0.3118519186973572	-0.06518646329641342	0.22778113186359406	-0.008662602864205837	0.11406315863132477	-0.12125127762556076	-0.3629508912563324	0.2560669481754303	-0.5452151298522949	-0.008920598775148392	0.5272725820541382	0.056301165372133255	-0.6055719256401062	0.2211504876613617	0.4170796573162079	-0.245491623878479	0.04342930391430855	0.10891483724117279	-0.15820978581905365	-0.08893119543790817	0.2757699489593506	0.05476147681474686	-0.2517908811569214	0.054490938782691956	0.36885687708854675	0.4074653387069702	-0.05991898849606514	0.45053035020828247	-0.19075776636600494	0.05439026653766632	0.06945687532424927	-0.09140671044588089	-0.02934982255101204	0.07719513028860092	-0.18217860162258148	0.14135956764221191	0.052373774349689484
colts	0.31475886702537537	-0.06599012762308121	-0.3179487884044647	0.4193260669708252	0.36998504400253296	0.13486064970493317	0.16713333129882812	-0.25069162249565125	0.5518938302993774	-0.3010499179363251	-0.39531630277633667	0.26756054162979126	-0.1548106074333191	-0.10169986635446548	-0.6731623411178589	0.2995848059654236	-0.2909214198589325	0.5823626518249512	0.005803636275231838	0.15929152071475983	-0.24988234043121338	-0.39736631512641907	0.027115030214190483	-0.22289054095745087	0.1856982707977295	0.17859788239002228	-0.27322906255722046	-0.6203106641769409	0.18265756964683533	0.3954404294490814	0.24900028109550476	-0.24843233823776245	-0.7196393013000488	0.35162681341171265	0.38095685839653015	-0.09055104106664658	0.6256381273269653	-0.3953893482685089	-0.5326968431472778	0.5282530784606934	-0.1450216919183731	-0.2999764382839203	-0.05976364016532898	0.4916984438896179	-0.6170273423194885	0.6550842523574829	-0.13651271164417267	0.3710331916809082	0.2942568361759186	-0.0575321689248085	0.12249227613210678	0.07565604895353317	-0.12032848596572876	0.6751242280006409	0.011883198283612728	0.3133186995983124	0.3899807929992676	0.6043453812599182	0.12278559058904648	0.36083778738975525	-0.0975567027926445	-0.10541269183158875	-0.023244809359312057	0.2038474678993225	0.1614210307598114	0.05783047154545784	0.5032995939254761	-0.5199615955352783	0.6452641487121582	-0.007474060170352459	-0.016200032085180283	0.7496370077133179	-0.7545807361602783	0.21052603423595428	0.3180074095726013	-0.921593427658081	0.23733985424041748	-0.060049720108509064	-0.18171197175979614	-0.186726376414299	-0.9530302882194519	0.270455539226532	0.027149289846420288	-0.12494375556707382	-0.2716895341873169	-0.10192608833312988	0.08999553322792053	0.04796948283910751	0.5002828240394592	0.090413399040699	0.038387127220630646	0.4911172091960907	0.23605190217494965	-0.12541510164737701	0.2954292893409729	-0.5933165550231934	-0.029911693185567856	-0.07954349368810654	-0.15958309173583984	-0.02189726009964943	-0.6851433515548706	-0.033148858696222305	0.25820040702819824	0.2459847778081894	0.051660869270563126	-0.15034876763820648	-0.2665460407733917	0.6841293573379517	0.4525597095489502	0.04787660762667656	-0.2233850657939911	-0.11660945415496826	0.07286712527275085	-0.08968596905469894	-0.019740581512451172	0.020687472075223923	-0.39289727807044983	-0.213309645652771	0.3502044379711151	-0.4320729672908783	-0.11269566416740417	0.03948462754487991	0.4512164294719696	-0.283147931098938	0.5196816921234131	-0.19337205588817596	-0.116251140832901	-0.0686480924487114
jaguars	0.47354263067245483	-0.14981916546821594	-0.11543459445238113	0.46236953139305115	-0.2960301339626312	0.04218991845846176	-0.3673115372657776	-0.17886395752429962	-0.10941782593727112	-0.35632672905921936	0.06808599084615707	0.42014777660369873	0.06386230885982513	-0.45992302894592285	-0.26476195454597473	-0.12159831821918488	0.01815849542617798	-0.1820908784866333	0.11011353135108948	0.33350497484207153	-0.1787234991788864	-0.1020827516913414	0.3505179286003113	0.10645933449268341	-0.1252882182598114	0.5022480487823486	-0.2887270152568817	0.14453426003456116	-0.014255406334996223	-0.5698621869087219	0.5941272974014282	-0.4819328784942627	0.05643991380929947	0.07816420495510101	0.47957488894462585	0.5796782970428467	0.23648951947689056	-0.0883791446685791	0.3780830204486847	0.2632177174091339	0.7047841548919678	-0.5025339126586914	0.20305931568145752	0.2566392123699188	0.4646415412425995	0.44822409749031067	0.40007394552230835	0.21355897188186646	0.16113370656967163	0.3122442960739136	0.06258590519428253	0.5295397043228149	0.2635903060436249	0.36335304379463196	-0.25382134318351746	0.7401940822601318	-0.14034517109394073	-0.2359248846769333	0.09113454073667526	-0.07790122181177139	-0.33005714416503906	-0.605157196521759	-0.058359913527965546	0.1220528781414032	0.12521687150001526	0.24209937453269958	0.4482421278953552	0.2512468993663788	0.1817721724510193	-0.2929002344608307	0.34131893515586853	0.3385491371154785	-0.2540678381919861	-0.535641610622406	-0.38268640637397766	-0.4258230924606323	0.051595721393823624	0.5782781839370728	0.06359504908323288	0.507300615310669	0.12052211910486221	0.21361224353313446	0.09505517035722733	-0.260981023311615	0.30081140995025635	-0.12100690603256226	-0.15786221623420715	-0.5702067613601685	0.4625782072544098	-0.23122231662273407	-0.5971804857254028	0.3703196048736572	-0.006006763316690922	0.19134610891342163	0.2721777856349945	-0.27665838599205017	-0.5201079249382019	0.10066986829042435	0.3426845073699951	-0.04755014553666115	-0.07207103073596954	0.006559104658663273	-0.28111499547958374	-0.20762495696544647	0.37089651823043823	-0.11184512823820114	0.22431257367134094	0.20919419825077057	0.36412373185157776	-0.07345760613679886	0.19556444883346558	0.6066552400588989	0.19283747673034668	-0.11871680617332458	0.3061682879924774	0.5671549439430237	0.32996031641960144	0.00029963854467496276	0.13451804220676422	-0.06804245710372925	0.305212140083313	-0.5160948634147644	-0.009837874211370945	-0.47143325209617615	0.40909311175346375	0.32616883516311646	-0.21643000841140747	0.2034221738576889
chiefs	-0.19159293174743652	-0.4283243715763092	-0.15986882150173187	0.8852511644363403	-0.3294203579425812	-0.2739774286746979	-0.427459716796875	0.5181875824928284	-0.46515166759490967	-0.171413853764534	0.25473272800445557	-0.13239426910877228	0.23087145388126373	-0.005157107021659613	0.11378760635852814	-0.1855035424232483	-0.36010780930519104	0.21861162781715393	-0.02155890129506588	0.1828821897506714	-0.20257802307605743	0.45912784337997437	0.21733157336711884	-0.3207867741584778	-0.9554478526115417	0.2951339781284332	-0.3756220042705536	0.14625810086727142	0.28232818841934204	-0.3168402910232544	-0.24393399059772491	0.34475305676460266	-0.5429149270057678	0.48200273513793945	0.24675744771957397	-0.3377450704574585	-0.6149924397468567	-0.4664885401725769	-0.30675554275512695	0.4044850766658783	-0.2896668612957001	0.0482935830950737	-0.13970275223255157	-0.15834026038646698	-0.022866683080792427	0.17634084820747375	0.17172019183635712	0.18803346157073975	0.25055935978889465	0.48569783568382263	-0.6559110879898071	0.14389441907405853	0.2899603247642517	0.7670661211013794	0.25683680176734924	0.15969012677669525	-0.06082557886838913	0.14898337423801422	0.1242758110165596	-0.23835939168930054	-0.32097727060317993	0.0813804343342781	0.2944187521934509	-0.017939556390047073	-0.2511773407459259	0.08625219017267227	0.15467247366905212	-0.3582685589790344	-0.09282918274402618	0.38720759749412537	0.35217562317848206	0.21022234857082367	-0.5023704171180725	-0.47209349274635315	0.035466622561216354	0.07645832002162933	0.4135259687900543	-0.524064302444458	-0.049987733364105225	0.6340115070343018	0.5148018002510071	0.0027138262521475554	-0.06877496093511581	0.2435102015733719	0.4368976950645447	-0.3236461579799652	0.28965944051742554	0.14658524096012115	-0.03287976607680321	-0.3014814257621765	-0.3407306671142578	0.06922626495361328	-0.16873829066753387	0.12794798612594604	0.037787847220897675	-0.7904313802719116	0.20401455461978912	-0.4377843737602234	0.04401721805334091	-0.30796098709106445	-0.0901944637298584	-0.08295714110136032	0.43878859281539917	-0.09826073795557022	-0.44259366393089294	0.1820058375597	0.17521235346794128	-0.09899966418743134	0.5900875926017761	-0.3039371073246002	-0.19481833279132843	-0.32248491048812866	0.34916502237319946	-0.15911157429218292	0.08428211510181427	0.02399252913892269	0.18666400015354156	0.2587200403213501	0.34864094853401184	-0.31217727065086365	0.19836293160915375	0.5402302742004395	-0.15784858167171478	-0.33741140365600586	-0.15133808553218842	0.012055328115820885	-0.04414810612797737	0.32944706082344055
chargers	-0.24206283688545227	-0.4226703643798828	-0.4604925215244293	-0.06487271934747696	-0.28222572803497314	-0.018336737528443336	0.16679488122463226	-0.21759217977523804	-0.07639410346746445	0.18439659476280212	0.3995770514011383	0.5258802771568298	-0.037395212799310684	-0.06404343247413635	0.19132722914218903	0.036400552839040756	0.16106434166431427	-0.7047569155693054	-0.35935115814208984	0.4041229486465454	-0.4220578670501709	0.12765009701251984	0.35117945075035095	0.09068049490451813	-0.534542977809906	-0.30065983533859253	-0.11464628577232361	0.07754544913768768	0.1578114628791809	0.24189308285713196	-0.1802971512079239	0.21277157962322235	-0.540429413318634	-0.35842522978782654	-0.10220726579427719	-0.3193146586418152	-0.5922919511795044	0.7935423851013184	-0.2512942850589752	0.07651525735855103	0.3340606093406677	-0.3367515802383423	0.8351238965988159	0.03094509243965149	-0.37424740195274353	0.7214264273643494	0.17670178413391113	0.4701736569404602	0.03643544763326645	0.43317273259162903	0.39823055267333984	-0.0916886106133461	0.12700115144252777	0.8692328333854675	0.631065845489502	0.3502906858921051	0.6641188859939575	0.02484245039522648	-0.31799885630607605	-0.7428937554359436	-0.35943958163261414	-0.6604630947113037	-0.021960508078336716	-0.42389756441116333	0.0014184535248205066	0.511553168296814	0.46127668023109436	0.44616037607192993	0.18316861987113953	-0.20687243342399597	-0.699464738368988	0.3074376881122589	-0.4505603611469269	-0.39305830001831055	-0.1170673593878746	-0.5939592123031616	-0.5527527332305908	-0.4067150354385376	0.2135261744260788	0.0507286973297596	0.43346983194351196	-0.20520730316638947	0.12886540591716766	0.2989215850830078	-0.013599292375147343	-0.19803422689437866	0.3950219452381134	0.29590967297554016	-0.29732438921928406	0.28676608204841614	-0.4352458715438843	-0.11748363822698593	-0.4105392098426819	0.2269134223461151	0.03879992663860321	0.2873804569244385	0.04685404524207115	-0.7818657159805298	-0.20600654184818268	0.3599116802215576	-0.3652210235595703	0.3591034710407257	0.2053375542163849	-0.13809283077716827	0.5504193305969238	0.7504003643989563	-0.38842499256134033	0.6558626294136047	0.028257187455892563	-0.23594073951244354	0.14425767958164215	0.5135369896888733	0.2903668284416199	-0.14764632284641266	0.30482426285743713	0.21390880644321442	0.10132123529911041	0.5609855055809021	0.31504660844802856	-0.2708751857280731	0.22022973001003265	-0.0216299407184124	-0.48054349422454834	0.03136281296610832	-0.1338927000761032	-0.48737654089927673	0.03319335728883743	0.725290834903717
rams	0.023373190313577652	0.041710447520017624	-0.03873177617788315	0.041338000446558	0.040463294833898544	-0.04519633203744888	-0.016180146485567093	0.026394788175821304	-0.03535502031445503	0.03556574508547783	0.01979323849081993	0.0011502504348754883	-0.022770201787352562	0.040522683411836624	0.03037169948220253	-0.047766149044036865	0.04870890453457832	0.04680361971259117	0.029272999614477158	-0.010884713381528854	-0.02467031590640545	-0.028867041692137718	-0.0075355395674705505	-0.0459614172577858	-0.03609675168991089	0.039113353937864304	0.01420551910996437	-0.022727251052856445	0.023835811764001846	0.04458517208695412	-0.022996176034212112	-0.0295358058065176	-0.029013311490416527	0.036997269839048386	0.03547375276684761	0.017840418964624405	-0.03760181739926338	0.020890463143587112	0.025024425238370895	0.03265265002846718	-0.02684037759900093	-0.005280517041683197	0.04681390896439552	0.04105493798851967	0.035549748688936234	-0.026019204407930374	0.004955638200044632	0.02977997437119484	-0.027205098420381546	0.040012385696172714	-0.018312692642211914	-0.017091333866119385	0.028829041868448257	0.033437278121709824	-0.04001830890774727	0.041934993118047714	0.009493909776210785	0.024980034679174423	0.009778819978237152	-0.039940498769283295	-0.00044099241495132446	0.033728908747434616	-0.02954965829849243	0.02770935371518135	0.00442948192358017	0.03610629215836525	-0.012090802192687988	-0.04851430654525757	0.021488238126039505	0.04079366847872734	0.015872810035943985	0.04749448224902153	0.03965577855706215	0.009743429720401764	0.027296412736177444	-0.01652761548757553	0.03768850490450859	0.030936304479837418	0.02085791900753975	-0.0033227093517780304	-0.009974002838134766	0.009425271302461624	-0.003378201276063919	0.02945571020245552	0.0010229945182800293	0.03700847551226616	-0.017032433301210403	0.025065694004297256	0.03209643438458443	-0.023778891190886497	0.032899025827646255	-0.012488901615142822	-0.022273613139986992	-0.044442035257816315	0.03182700648903847	-0.03819103166460991	-0.019517255946993828	-0.046913038939237595	-0.0027157291769981384	0.011583518236875534	0.0177655927836895	0.029763150960206985	0.030174922198057175	-0.033264778554439545	0.022703122347593307	0.04908740893006325	-0.04875143989920616	0.0376281775534153	-0.03304225206375122	-0.04150637239217758	0.03554166480898857	0.027852866798639297	0.028743397444486618	0.04907761886715889	0.04105671867728233	0.01505054160952568	0.03456496074795723	-0.025923514738678932	-0.004374276846647263	-0.0048484206199646	0.016318414360284805	0.026519451290369034	0.00035832077264785767	-0.03632401302456856	0.03411835804581642	-0.031182050704956055	0.04504120722413063	-0.04309002310037613
dolphins	0.1554989069700241	-0.5728205442428589	-0.39702308177948	0.06623093783855438	-0.17611441016197205	-0.06927670538425446	0.9655253887176514	-0.30901065468788147	0.41796138882637024	0.8371613025665283	-0.4616415202617645	0.21312692761421204	0.5709844827651978	0.48533281683921814	-0.1328638195991516	-0.09056904166936874	0.6029548645019531	-0.7026852369308472	0.5852930545806885	-0.28151386976242065	-0.43827125430107117	-0.2795282304286957	0.3347841799259186	-0.10634363442659378	0.6285662651062012	0.006642026361078024	-0.3111610412597656	0.2832987606525421	0.013300749473273754	0.21940897405147552	0.3247845768928528	-0.8066948652267456	-0.262898325920105	0.3291260302066803	0.6650993227958679	0.43232718110084534	0.21923555433750153	-0.2847782075405121	0.17131365835666656	0.5238496661186218	-0.31887537240982056	0.2302047163248062	-0.4396152198314667	0.28165847063064575	0.4471537172794342	0.4293554723262787	0.1978350430727005	0.7022829651832581	0.10129649192094803	0.29000693559646606	0.35448887944221497	0.45688241720199585	0.25924745202064514	0.3235950171947479	-0.4130561053752899	0.1867896467447281	0.10235605388879776	0.3649468719959259	-0.07027675956487656	0.12927088141441345	0.255867600440979	-0.3559219539165497	-0.2506314516067505	-0.13201692700386047	-0.24885746836662292	0.5374024510383606	0.29054635763168335	0.45477917790412903	0.11624448746442795	-0.2050500363111496	0.05089356005191803	-0.34186944365501404	0.4811573326587677	-0.4851599931716919	0.26402294635772705	0.014804485253989697	-0.36813127994537354	0.13693030178546906	-0.5187259316444397	-0.16801504790782928	-0.09806787222623825	-0.2990577518939972	-0.1820264756679535	0.17317889630794525	0.39459460973739624	-0.29629501700401306	0.41173627972602844	-0.3180404603481293	0.7552468180656433	-0.5140265226364136	-0.27232640981674194	-0.20765529572963715	-0.41454216837882996	0.344382643699646	0.35026854276657104	-0.3500167429447174	-0.6126033067703247	-0.29495251178741455	0.8278540372848511	0.09586697816848755	0.34272709488868713	-0.5445721745491028	0.06062285974621773	-0.3355872631072998	-0.26924026012420654	0.19351986050605774	0.38255396485328674	0.702968955039978	0.18775321543216705	0.2819608747959137	-0.5529914498329163	-0.4645098149776459	0.7432060241699219	-0.5890405178070068	0.37679094076156616	-0.057008784264326096	0.7114009857177734	-0.3713894486427307	0.6376190185546875	-0.5835211873054504	-0.03098147176206112	-0.4438323378562927	0.38948091864585876	-0.2946588099002838	-0.07216423749923706	0.5247330665588379	-0.4975917637348175	0.12664005160331726
vikings	0.4424590766429901	-0.005295861978083849	-0.37582871317863464	0.2993735074996948	-0.5189375877380371	0.11701402068138123	-0.49712422490119934	0.13065099716186523	-0.27995213866233826	0.008086389862000942	0.4700874984264374	0.2501327693462372	-0.20856057107448578	-0.45558440685272217	-0.3766878545284271	-0.29046666622161865	0.3531719446182251	-0.45562559366226196	0.4365615248680115	-0.12311024963855743	0.08734249323606491	-0.08854452520608902	0.106325164437294	0.4023612439632416	-0.461905837059021	0.32830867171287537	-0.23915265500545502	0.368110716342926	-0.15086454153060913	-0.40615490078926086	0.32786962389945984	-0.2682170867919922	0.1911763697862625	-0.5144593715667725	0.40287673473358154	0.37927061319351196	0.19183172285556793	-0.198244109749794	0.24116051197052002	-0.25187647342681885	0.5308346748352051	-0.385774701833725	0.3899468183517456	-0.3620540201663971	0.05119934678077698	0.2998688220977783	0.30062076449394226	-0.4581877291202545	-0.46166735887527466	0.35327208042144775	0.45976611971855164	0.2963217496871948	0.0545189268887043	-0.07735589146614075	-0.20857903361320496	0.48177456855773926	-0.4204173684120178	0.21771983802318573	0.14929191768169403	-0.09233668446540833	-0.3963351845741272	-0.5803208351135254	-0.0009769056923687458	-0.03146613389253616	0.2212023138999939	0.18747125566005707	0.5286219120025635	-0.38504037261009216	-0.13346391916275024	-0.2251158505678177	0.26825565099716187	0.23176930844783783	0.2660368084907532	-0.33810535073280334	-0.33416232466697693	-0.3936510384082794	-0.23336970806121826	-0.05910686403512955	-0.2655390501022339	-0.2167898267507553	0.4480450749397278	-0.35965389013290405	0.17512698471546173	-0.2543291747570038	-0.0907842367887497	-0.33251217007637024	-0.12694846093654633	-0.4540806710720062	0.03357392176985741	-0.2745594084262848	-0.44299736618995667	-0.17587707936763763	0.16478046774864197	0.14979630708694458	-0.041133616119623184	0.24531377851963043	-0.026789210736751556	0.14396820962429047	0.3737354278564453	-0.10470940172672272	-0.24662169814109802	-0.1880711019039154	-0.0740252211689949	0.11783836781978607	0.1494654417037964	0.4665956199169159	-0.008641926571726799	0.2211342751979828	-0.1427607536315918	-0.14707762002944946	0.3250106871128082	-0.05636532977223396	0.45150408148765564	0.10387877374887466	0.22779645025730133	0.06464705616235733	0.496855765581131	0.28620022535324097	-0.16600587964057922	-0.04406827315688133	-0.028344614431262016	-0.14454472064971924	-0.12631581723690033	-0.35594892501831055	-0.0747215524315834	-0.13339491188526154	0.06147851049900055	0.17618176341056824
patriots	0.3502126634120941	0.1776581108570099	-0.1946728676557541	-0.31997591257095337	0.37652865052223206	-0.3590635657310486	-0.34675145149230957	-0.21218515932559967	-0.15750761330127716	-0.3865794241428375	0.3869943618774414	-0.24755430221557617	0.27009695768356323	0.4764018654823303	-0.3573486804962158	-0.4041106104850769	0.143559992313385	0.2542274594306946	0.36981117725372314	-0.0005421890527941287	-0.49233412742614746	-0.33917829394340515	-0.18263477087020874	0.046367254108190536	0.36996644735336304	-0.23882557451725006	0.23186297714710236	-0.0641058012843132	0.4465946853160858	-0.1380149871110916	0.1492316722869873	0.43548139929771423	0.34936705231666565	-0.32978060841560364	0.2825402021408081	0.3535745143890381	0.3176775574684143	0.3169592022895813	-0.3609083592891693	0.36393454670906067	0.26621419191360474	0.32825902104377747	-0.24207726120948792	0.44928470253944397	-0.3663140535354614	-0.3485068678855896	0.21603921055793762	0.03527901694178581	0.277016282081604	0.45039597153663635	0.40348246693611145	-0.27491331100463867	-0.20921505987644196	0.43130937218666077	-0.39552322030067444	-0.24583926796913147	0.07369714975357056	0.22523564100265503	-0.36502543091773987	-0.2343875765800476	-0.31666257977485657	-0.05058261752128601	-0.2002931386232376	-0.4158003330230713	0.3918777406215668	-0.15919584035873413	0.22068242728710175	0.056917060166597366	0.451247900724411	-0.23100779950618744	-0.3293881416320801	-0.43537241220474243	0.24669873714447021	-0.3578198254108429	0.2809111773967743	0.17451834678649902	-0.4476904571056366	-0.41582342982292175	0.2711861729621887	-0.433036744594574	0.34960201382637024	0.21769320964813232	-0.03717774897813797	-0.05944279581308365	0.16026899218559265	-0.06020238995552063	-0.08329866081476212	-0.3254844844341278	-0.4466437101364136	0.2686893939971924	0.1755322962999344	-0.38229766488075256	-0.44174426794052124	0.14761127531528473	0.333498477935791	0.02426539734005928	-0.01685953512787819	-0.12575209140777588	0.369730681180954	0.20861932635307312	0.41820263862609863	0.4064365029335022	-0.07583685964345932	0.4013231694698334	0.1894458383321762	-0.4351748824119568	0.4264974594116211	-0.04951325058937073	0.041096609085798264	-0.3784655034542084	0.19707269966602325	-0.37574502825737	-0.061439864337444305	-0.13254518806934357	0.4024023413658142	-0.07977212965488434	0.32926350831985474	0.36219021677970886	-0.34241655468940735	0.05757053941488266	-0.28268611431121826	-0.26805949211120605	0.31642472743988037	0.3611435890197754	0.40038418769836426	-0.27763089537620544	0.47975391149520874	0.3179309368133545
saints	0.3555184304714203	0.00450628949329257	0.28035667538642883	0.02929987758398056	-0.07397472858428955	-0.4274529814720154	-0.045389775186777115	-0.39902448654174805	-0.21564464271068573	0.2870350182056427	0.24361027777194977	-0.36986884474754333	0.2018595039844513	0.30613526701927185	0.2963080108165741	-0.22676894068717957	-0.19861862063407898	0.22452865540981293	0.2376050502061844	-0.31535154581069946	-0.40403351187705994	0.18969140946865082	0.27331942319869995	-0.21328750252723694	0.32329997420310974	0.3881712555885315	0.3474113941192627	0.49956515431404114	0.10422731935977936	-0.45937398076057434	-0.057157162576913834	-0.15808247029781342	0.07404603809118271	-0.42314645648002625	0.25060200691223145	0.3167295455932617	0.3080805838108063	0.3583492636680603	0.25821352005004883	-0.01860865391790867	0.43752479553222656	0.2967642843723297	0.5090121626853943	-0.10487502068281174	-0.2811083495616913	-0.14466962218284607	0.25064781308174133	-0.12114880234003067	-0.3862457275390625	0.36566323041915894	0.2543272078037262	-0.33212360739707947	0.42860159277915955	0.3881511986255646	0.349612832069397	0.15469670295715332	0.282392680644989	0.1655758023262024	0.07848931103944778	0.02957642264664173	-0.32534393668174744	0.2504149377346039	0.10146709531545639	-0.2622542381286621	0.4022946059703827	0.37683427333831787	0.36499541997909546	-0.36538267135620117	0.2862796485424042	0.057878125458955765	0.09729200601577759	-0.43216603994369507	0.26379767060279846	-0.3995131552219391	0.3585311770439148	0.46387460827827454	0.3722116947174072	-0.41783273220062256	-0.43913888931274414	0.02932148054242134	0.3823035955429077	0.3558800518512726	0.3798592984676361	-0.2972053289413452	0.19438540935516357	0.26620960235595703	-0.32354724407196045	0.3524516224861145	0.15879042446613312	0.3940408229827881	0.28514865040779114	-0.12211082875728607	-0.38811665773391724	0.45692530274391174	0.26643770933151245	0.41594353318214417	0.3248504400253296	0.2245396226644516	-0.08149587363004684	0.2063620388507843	0.39920780062675476	-0.42734068632125854	-0.3488278090953827	0.3706533908843994	-0.11136505752801895	-0.38132917881011963	0.2895466983318329	-0.29389122128486633	0.187639057636261	-0.18765570223331451	0.1623164713382721	-0.34949901700019836	0.030778972432017326	0.18087685108184814	0.13630551099777222	-0.16248951852321625	-0.09606342762708664	0.16816501319408417	-0.34869185090065	0.25876322388648987	-0.05418497696518898	-0.4401005804538727	0.28186118602752686	0.14933528006076813	0.43130552768707275	-0.3767024278640747	0.40418389439582825	0.3195512890815735
giants	0.5523965954780579	-0.1901877373456955	-0.36487191915512085	-0.2709956169128418	-0.17733041942119598	-0.40273141860961914	0.31120631098747253	0.32698771357536316	0.22112713754177094	0.09515876322984695	-0.012863138690590858	0.348342627286911	-0.1816185563802719	-0.523525595664978	-0.17164528369903564	0.10585209727287292	-0.32469120621681213	-0.6436982154846191	-0.1867305189371109	0.23358751833438873	-0.02274324931204319	-0.42690593004226685	-0.2843098044395447	0.07302030175924301	-0.06478115171194077	0.3363364338874817	-0.3317772150039673	0.3019266724586487	0.048743586987257004	-0.6319622993469238	0.2035549134016037	-0.2460382580757141	-0.3906441926956177	-0.2568056583404541	-0.12565357983112335	0.06665085256099701	-0.7303123474121094	0.23469175398349762	-0.2270602136850357	0.40379074215888977	0.7936108708381653	-0.36912626028060913	-0.36700639128685	0.7309770584106445	0.05031251162290573	-0.01332466583698988	0.6253615021705627	-0.254659503698349	-0.25291645526885986	-0.16630196571350098	0.12465797364711761	0.18770115077495575	0.07270639389753342	0.635628879070282	-0.21892210841178894	0.7467895150184631	0.708430826663971	0.4146466553211212	0.2558532953262329	-0.2616872191429138	0.11177097260951996	0.12602289021015167	-0.11660372465848923	0.44407549500465393	-0.0007722022710368037	-0.023238329216837883	0.12671712040901184	-0.12855234742164612	0.15581604838371277	0.0837947204709053	0.297015517950058	0.05357878655195236	-0.29020190238952637	-0.14671489596366882	-0.3424673080444336	-0.1884080469608307	-0.09744486957788467	0.36090973019599915	-0.016113612800836563	-0.41127488017082214	0.10247992724180222	0.31340402364730835	0.12781016528606415	-0.23771628737449646	0.06042641028761864	-0.32869645953178406	0.33385443687438965	0.027231276035308838	0.4875066876411438	0.24104122817516327	-0.28140050172805786	0.36717739701271057	0.09584719687700272	0.06733469665050507	0.5985652208328247	-0.3497655689716339	-0.17365087568759918	0.1887977421283722	0.33055755496025085	-0.3251951336860657	0.23136988282203674	-0.4100172221660614	-0.00468523008748889	-0.14017976820468903	0.27481701970100403	-0.17746685445308685	-0.2255755513906479	0.20105023682117462	0.14759700000286102	-0.26954177021980286	0.07922334223985672	0.6333641409873962	0.03985946625471115	-0.5008124113082886	0.21041199564933777	-0.22220313549041748	0.3708220422267914	-0.31235644221305847	0.1055905744433403	-0.20857834815979004	0.33754611015319824	-0.2982349097728729	0.33098381757736206	-0.3036646544933319	0.53115314245224	-0.3648447096347809	-0.4151392877101898	0.07950333505868912
jets	0.39275580644607544	-0.5594189763069153	-0.07723230123519897	0.1614941507577896	0.2278459519147873	-0.7893897891044617	-0.23377923667430878	-0.18055260181427002	0.18537583947181702	-0.6287662386894226	0.5931378602981567	0.5142706632614136	0.052171919494867325	0.19957613945007324	0.39553043246269226	0.12538982927799225	-0.392787903547287	-0.16313797235488892	-0.036623068153858185	0.11290000379085541	0.5764297842979431	-0.4593564569950104	0.4722103476524353	-0.4380726218223572	-0.2556335926055908	0.03143756091594696	-0.4878031015396118	0.1327885538339615	-0.2295341044664383	0.06966233998537064	0.4673748016357422	0.15270160138607025	-0.09010031819343567	0.6470432877540588	0.13005861639976501	0.4107110798358917	0.1603715568780899	0.17861132323741913	0.37572234869003296	-0.046630945056676865	-0.11542040854692459	0.28207311034202576	-0.6719359159469604	-0.3018767535686493	-0.11125491559505463	0.20066751539707184	-0.4854365885257721	0.2868204712867737	0.5662918090820312	-0.46255841851234436	0.17772385478019714	-0.16952002048492432	-0.07904064655303955	0.26809725165367126	-0.2057245373725891	-0.39310353994369507	0.5312072038650513	-0.29295438528060913	-0.7772712707519531	-0.390231728553772	-0.12104461342096329	-0.3182429373264313	0.04871869459748268	0.540130078792572	-0.7991014719009399	0.27670571208000183	0.3124445974826813	0.41849640011787415	0.3984186351299286	0.26845982670783997	-0.19367524981498718	-0.38709375262260437	0.17400440573692322	-0.35909533500671387	-0.5782806277275085	-0.09072943031787872	0.18526288866996765	0.5067821741104126	0.030013371258974075	0.362495481967926	-0.06748495995998383	-0.31799623370170593	-0.2403227984905243	-0.26524028182029724	0.4281550347805023	0.10288558155298233	0.03510362282395363	-0.5426318645477295	-0.20386162400245667	0.05302766337990761	-0.578137218952179	-0.21491047739982605	0.4132547080516815	0.06484871357679367	-0.09965907782316208	-0.28811609745025635	-0.9107236862182617	-0.8116556406021118	0.6794965863227844	-0.3998911678791046	0.49956485629081726	0.3933311998844147	-0.30616357922554016	-0.24082720279693604	0.1749998778104782	-0.5748311281204224	0.1957884132862091	-0.2751689851284027	0.5252768993377686	-0.02666378580033779	-0.13451454043388367	0.6055862307548523	-0.22128482162952423	-0.7559984922409058	0.08849068731069565	0.833733320236206	0.4179028868675232	-0.5240238308906555	0.7140707969665527	-0.36485159397125244	-0.08572772145271301	-0.32451942563056946	0.2025865912437439	-0.3132614195346832	0.08591136336326599	0.28354883193969727	0.09345521032810211	-0.34924188256263733
raiders	0.37805643677711487	-0.17324623465538025	0.17296940088272095	-0.11614381521940231	0.38758161664009094	0.07825364917516708	0.2465042620897293	0.0752183347940445	-0.213815376162529	-0.20465625822544098	0.07075943797826767	0.24782772362232208	-0.4789269268512726	-0.47195160388946533	0.43512192368507385	0.10427543520927429	-0.5108553767204285	0.050905000418424606	-0.04500122368335724	0.37765318155288696	0.20773129165172577	0.0669134259223938	0.09920822829008102	-0.181075319647789	-0.5438764691352844	0.25879502296447754	0.33203426003456116	-0.31614911556243896	0.2502043545246124	0.2192472517490387	-0.5307783484458923	-0.13254640996456146	0.43061187863349915	0.39780503511428833	0.18855725228786469	0.05718330293893814	0.1042119488120079	0.07307635247707367	0.2371288239955902	-0.15446707606315613	-0.33103853464126587	0.28147655725479126	-0.23218072950839996	0.27974796295166016	0.5402791500091553	0.42135298252105713	-0.439684122800827	-0.04548250511288643	-0.1927362084388733	-0.21177886426448822	0.17225493490695953	-0.24567295610904694	-0.549526035785675	0.0447503961622715	0.04459356889128685	0.008744234219193459	0.15305578708648682	0.28829675912857056	0.2479257583618164	-0.05177368223667145	-0.241366446018219	-0.060347847640514374	-0.3415106236934662	0.1219966858625412	0.061713989824056625	-0.49890783429145813	-0.46981531381607056	-0.3803085684776306	0.5645281672477722	0.03800216317176819	-0.16239359974861145	-0.4716474115848541	-0.24582073092460632	-0.008008346892893314	-0.5283980965614319	0.12463045120239258	0.08923105150461197	0.39436063170433044	0.24908727407455444	-0.17651766538619995	-0.10854314267635345	-0.29804474115371704	-0.23902079463005066	-0.543251097202301	0.12537136673927307	0.08579420298337936	-0.5059388875961304	-0.13933180272579193	0.10120335221290588	0.07640786468982697	-0.0921432375907898	0.6000638008117676	0.49532783031463623	-0.03349722921848297	0.5117018818855286	-0.3337956368923187	0.21776273846626282	-0.5400597453117371	0.12828445434570312	-0.16443730890750885	-0.08849500864744186	0.4582485556602478	-0.2531684339046478	-0.19058191776275635	0.1363992840051651	-0.2627544403076172	-0.550615668296814	-0.4025936722755432	0.033147528767585754	-0.3386152982711792	0.2022278606891632	0.1995488703250885	0.0014279707102105021	-0.4108324944972992	-0.46852907538414	0.12627214193344116	-0.23485705256462097	-0.3565046489238739	0.1570107787847519	0.09606194496154785	-0.22062067687511444	0.43053725361824036	0.4004342555999756	-0.30206969380378723	-0.08505018800497055	0.38875022530555725	0.37424737215042114	-0.022041702643036842
eagles	0.021862003952264786	-0.013689469546079636	-0.04690162092447281	-0.03864485025405884	0.011633731424808502	0.012626592069864273	-0.0007656924426555634	-0.005352746695280075	-0.03503609821200371	0.016315195709466934	-0.004853963851928711	-0.04915913566946983	0.04179159179329872	-0.00744551420211792	-0.013147342950105667	-0.03744537755846977	-0.026489997282624245	-0.026180148124694824	-0.03226783126592636	0.005172111093997955	1.5307217836380005e-05	0.0097145214676857	-0.04081524536013603	-0.0019408687949180603	0.02717176452279091	0.043011318892240524	-0.005177497863769531	0.004959475249052048	-0.004046380519866943	-0.0003527887165546417	-0.007722117006778717	0.04297151789069176	-0.01465674489736557	-0.039163339883089066	0.027812112122774124	0.049081411212682724	0.0036561600863933563	0.021585021167993546	-0.047241535037755966	0.03478005900979042	-0.03972170501947403	0.039889898151159286	0.028221871703863144	-0.03959480673074722	0.008026670664548874	0.009795784950256348	0.025593329221010208	0.048812974244356155	0.03478889539837837	0.025455329567193985	-0.036074198782444	0.04887891933321953	-0.01486293226480484	-0.042985569685697556	0.0028267018496990204	-0.013220299035310745	0.004192996770143509	0.02128661796450615	-0.034957028925418854	-0.03402004390954971	0.00740431621670723	0.0417492501437664	-0.04275939613580704	-0.03177737072110176	-0.01611506938934326	0.005882382392883301	-0.04595395550131798	-0.0033065788447856903	-0.04279492050409317	-0.008891511708498001	0.009223829954862595	-0.015220940113067627	-0.03721337392926216	0.03574785962700844	0.049157608300447464	-0.003612123429775238	-0.007317744195461273	-0.01030879095196724	0.007859468460083008	-0.03518275171518326	0.04438997432589531	0.006050609052181244	0.028850842267274857	-0.021918654441833496	-0.009960927069187164	-0.041420601308345795	-0.03418993949890137	-0.011365830898284912	0.03757384046912193	0.029138747602701187	0.015127930790185928	-0.006280757486820221	-0.015024412423372269	0.0010448917746543884	0.04041656479239464	-0.04643737152218819	0.0054771676659584045	-0.014892898499965668	0.042642537504434586	0.017989490181207657	0.03168859705328941	-0.00021424144506454468	-0.040624164044857025	0.007642984390258789	-0.046389877796173096	0.02755201980471611	-0.0025926604866981506	-0.0002842433750629425	-0.0223857294768095	-0.011923395097255707	-0.01625124365091324	-0.009741388261318207	0.02140592411160469	-0.021884847432374954	0.015160869807004929	-0.030620742589235306	-0.001423526555299759	-0.02591421641409397	-0.030068088322877884	-0.016253948211669922	0.015557896345853806	-0.0368519052863121	0.02957392856478691	-0.01255355030298233	-0.0076199062168598175	-0.046531688421964645	0.006165623664855957	0.0014830008149147034
steelers	-0.41864249110221863	-0.022897686809301376	0.30635541677474976	0.19309233129024506	0.027058761566877365	0.15216416120529175	-0.13123993575572968	0.10494664311408997	0.019975177943706512	-0.025795405730605125	-0.09018505364656448	0.2800899147987366	-0.1775694638490677	-0.1776515245437622	-0.29690441489219666	-0.09487947821617126	0.4352703094482422	-0.8244823813438416	-0.20265662670135498	0.16261041164398193	-0.49387767910957336	0.24052715301513672	-0.27841314673423767	0.36744624376296997	0.019602065905928612	-0.1418365091085434	-0.0492999441921711	0.09819484502077103	0.5020405650138855	0.3526762127876282	0.32225701212882996	0.37534064054489136	0.2325344681739807	-0.3240499794483185	0.332563579082489	0.22098688781261444	-0.4517502784729004	0.12469187378883362	-0.37559887766838074	-0.1242876797914505	-0.6834315657615662	-0.6891655921936035	-0.26450419425964355	0.4096653163433075	-0.5463963747024536	-0.48805928230285645	0.5702894330024719	0.537448525428772	0.3856950104236603	0.8529653549194336	0.14279453456401825	0.40485879778862	0.2920388877391815	0.1326039433479309	-0.2530139684677124	0.44376522302627563	0.15501724183559418	0.604651153087616	0.34996920824050903	0.03719593584537506	0.07527866214513779	-0.43106916546821594	-0.31427237391471863	-0.5348079800605774	0.2699747085571289	-0.0001999266678467393	0.5453444719314575	0.42168736457824707	0.257199764251709	-0.35600119829177856	0.256342351436615	0.356799453496933	-0.0026220891159027815	-0.023464195430278778	-0.10201216489076614	-0.41601234674453735	-0.2724807560443878	-0.44305214285850525	-0.20548200607299805	-0.2511903941631317	-0.24112674593925476	-0.510455310344696	0.11568090319633484	0.10883796215057373	1.0436533689498901	0.043517280369997025	0.5422706604003906	-0.4377906024456024	0.3776019811630249	-0.0382247157394886	-0.5922569632530212	0.2635287642478943	0.12222100049257278	-0.08777998387813568	0.21864034235477448	0.6335317492485046	-0.7885692119598389	-0.5372558236122131	-0.1265113353729248	-0.3217974007129669	-0.4173358082771301	-0.08689048141241074	0.49587175250053406	-0.15920108556747437	0.14722701907157898	-0.3772166073322296	0.25241321325302124	-0.4129016101360321	0.5506043434143066	0.2461191713809967	-0.21714697778224945	-0.5606613755226135	-0.4611876606941223	0.16046658158302307	0.001996687613427639	0.1852828562259674	0.06988345086574554	0.13047966361045837	0.4217013418674469	-0.5655419826507568	0.5654482245445251	0.5207411646842957	-0.13891345262527466	-0.8152757287025452	-0.46073010563850403	-0.20095014572143555	-0.36161312460899353	0.3471762239933014
49ers	0.36074262857437134	0.46764644980430603	0.3440767824649811	-0.5705340504646301	-0.08784154802560806	-0.07562554627656937	-0.2816442847251892	-0.5079023838043213	-0.03362609073519707	-0.43120378255844116	-0.6173788905143738	-0.06687064468860626	0.5945586562156677	0.4505242705345154	-0.06609530001878738	-0.16165970265865326	-0.578761100769043	0.22521598637104034	0.2567327320575714	0.16449028253555298	-0.4721720814704895	0.02710338868200779	0.4610292315483093	-0.008668849244713783	0.2560993432998657	-0.39481106400489807	0.21056756377220154	0.2642814815044403	-0.30564814805984497	-0.27058830857276917	0.007963643409311771	0.12295492738485336	0.33979710936546326	0.5310840606689453	-0.48450928926467896	0.36435666680336	-0.6134902834892273	-0.15261611342430115	-0.2811410427093506	0.8916821479797363	0.38030555844306946	0.4443659782409668	0.27913591265678406	0.2403337061405182	-0.3425295948982239	0.24133847653865814	-0.1481045037508011	-0.3780374825000763	0.7327114343643188	0.5719080567359924	0.2944153845310211	-0.061724379658699036	-0.2467801868915558	-0.1700907051563263	-0.27228859066963196	0.1220155656337738	-0.03296642750501633	-0.5026031732559204	0.14258384704589844	-0.6358411908149719	-0.82627934217453	-0.10298674553632736	-0.5666178464889526	-0.07230345159769058	-0.6391668319702148	0.771196722984314	0.2530643939971924	0.5141807198524475	0.045502230525016785	-0.31708407402038574	-0.7099387049674988	-0.26156243681907654	-0.37794211506843567	-0.5642428994178772	-0.48107990622520447	-0.40318870544433594	0.6970405578613281	0.471767783164978	0.7939763069152832	0.5526142716407776	0.5338093638420105	-0.4886595904827118	-0.2530703842639923	0.755881130695343	-0.4173699915409088	-0.09948867559432983	0.008786853402853012	-0.009289711713790894	0.21019944548606873	-0.3416946530342102	-0.3969675600528717	0.42435234785079956	-0.34923452138900757	-0.13334646821022034	0.2807430028915405	-0.5407620072364807	-0.19871792197227478	0.0011839298531413078	0.7112308740615845	-0.36244454979896545	0.4263938367366791	-0.13346876204013824	0.882500946521759	-0.4967783987522125	0.07505461573600769	-0.36107608675956726	0.33547109365463257	-0.448556512594223	0.3498425781726837	-0.02397368662059307	-0.8526118993759155	-0.22183014452457428	0.7534186244010925	-0.09821503609418869	0.26562270522117615	-0.1274651437997818	0.05015372857451439	0.14717023074626923	0.563957691192627	-0.20156407356262207	0.13296830654144287	0.3986169695854187	-0.37844425439834595	0.1344737857580185	0.5693286657333374	0.004081800580024719	-0.05656152963638306	0.2381117343902588
seahawks	-0.2679893970489502	0.13955721259117126	-0.29956677556037903	-0.07758258283138275	0.28741028904914856	-0.38293012976646423	-0.7013187408447266	-0.2959536612033844	0.4193516969680786	-0.21600614488124847	0.08056146651506424	0.4261223077774048	0.3781965374946594	0.19186931848526	0.4534054100513458	0.24989086389541626	0.24872039258480072	-0.13715378940105438	0.3901861906051636	0.22306640446186066	-0.6870243549346924	-0.7437793016433716	-0.1654355525970459	-0.13777534663677216	-0.6198323965072632	0.10416321456432343	-0.43468329310417175	0.28897178173065186	0.24679873883724213	-0.2678816020488739	0.5094770193099976	0.5498084425926208	-0.1248253881931305	0.1786278933286667	0.01036140602082014	0.24442629516124725	-0.635809600353241	-0.15709435939788818	0.16377095878124237	0.47237902879714966	0.2887490689754486	-0.06112057343125343	-0.23390763998031616	0.4088091254234314	0.3958096206188202	0.13395309448242188	0.12541893124580383	0.3012763559818268	0.07591473311185837	-0.27891361713409424	0.41504040360450745	0.18142318725585938	0.19314169883728027	0.30629974603652954	0.48878180980682373	0.049575094133615494	0.036731258034706116	-0.12480023503303528	0.5375955700874329	0.14923976361751556	-0.4255577325820923	-0.37744203209877014	-0.48980432748794556	-0.0887245386838913	0.06407774984836578	0.2743552327156067	0.5319429039955139	0.48739221692085266	-0.011531883850693703	-0.24220110476016998	0.07424896955490112	0.4799440801143646	0.06023629754781723	-0.04289919510483742	0.11554838716983795	-0.1561581939458847	-0.2798927426338196	-0.10799653828144073	-0.10406887531280518	-0.16635382175445557	-0.2523980140686035	0.5086957216262817	0.07749328017234802	0.3028220236301422	0.3266611695289612	-0.11383336782455444	-0.2821051776409149	-0.10684078931808472	-0.037875521928071976	0.10276351124048233	-0.21992690861225128	-0.042569953948259354	0.2552335560321808	0.4008520543575287	0.07664787024259567	0.33902066946029663	-0.5556817054748535	0.12460462749004364	0.25870591402053833	-0.5183678269386292	-0.06106364727020264	0.20449523627758026	0.6821596622467041	-0.14065586030483246	0.07729952037334442	0.23067735135555267	0.2381630539894104	-0.370502233505249	0.32368943095207214	-0.09150601923465729	0.26067060232162476	-0.25226500630378723	-0.12095073610544205	0.01883932575583458	0.0447627454996109	0.13763223588466644	0.466383695602417	0.6343034505844116	0.1939426213502884	-0.1503855288028717	0.4714178442955017	0.3298606276512146	-0.05868985131382942	-0.041268639266490936	-0.1116950511932373	-0.2307455837726593	-0.10688947886228561	-0.4231127202510834
buccaneers	-0.025781264528632164	-0.2529798150062561	-0.24420973658561707	-0.049446750432252884	0.30148765444755554	0.03263820707798004	0.47552207112312317	-0.3267034888267517	0.6401752233505249	0.21293191611766815	-0.3340431749820709	0.28915050625801086	0.4024580717086792	-0.15926404297351837	-0.05624449625611305	0.06850730627775192	0.18239709734916687	-0.12637437880039215	-0.44723838567733765	0.6000663042068481	0.21563148498535156	0.17927813529968262	0.14905834197998047	-0.32783156633377075	0.07053487747907639	0.355900377035141	0.36379003524780273	-0.30317413806915283	0.44784069061279297	0.261675626039505	-0.0383925624191761	0.3215656280517578	-0.36473435163497925	-0.2737835645675659	-0.26931342482566833	0.30450674891471863	-0.21224536001682281	0.04793976619839668	-0.15578269958496094	0.02728293091058731	-0.2159363180398941	-0.31018874049186707	-0.3812323212623596	-0.3955410420894623	-0.6045863032341003	0.08982163667678833	-0.03994555026292801	-0.24410192668437958	-0.08268073946237564	0.04001379385590553	-0.07492483407258987	0.3669913113117218	0.3270086348056793	0.4882299304008484	0.42762866616249084	0.2625660300254822	0.14811676740646362	0.13079756498336792	0.2936147153377533	-0.4712241590023041	-0.22458074986934662	-0.43733882904052734	0.28679758310317993	-0.14611954987049103	-0.48897668719291687	-0.44213613867759705	0.10111232101917267	0.4782254099845886	0.15645617246627808	-0.18439574539661407	0.2267635464668274	-0.012559612281620502	-0.43794021010398865	-0.4858894646167755	-0.4201599657535553	-0.05522587150335312	-0.2338770180940628	0.45280593633651733	0.1978994458913803	0.15699824690818787	-0.23305152356624603	-0.5706799030303955	0.013726170174777508	-0.19782240688800812	0.02898537553846836	-0.12845134735107422	-0.18494248390197754	-0.4787028729915619	-0.2931572198867798	0.1672787219285965	0.1221892386674881	0.1712905317544937	-0.33284974098205566	0.3860110342502594	0.36953428387641907	-0.5021042227745056	-0.14586065709590912	0.11135891824960709	0.03770425170660019	0.3820551931858063	-0.12337564677000046	0.10464784502983093	-0.05021602660417557	0.26332151889801025	0.47130754590034485	-0.10174994170665741	-0.2666032016277313	-0.6225420832633972	0.23144015669822693	-0.10783596336841583	0.15724782645702362	-0.14871974289417267	-0.18080022931098938	-0.11945820599794388	-0.13595594465732574	0.27644607424736023	0.3460928499698639	0.5643832683563232	0.47836703062057495	-0.4593052566051483	0.45743948221206665	-0.5742024183273315	-0.00030205660732463	0.336111843585968	-0.3965279757976532	-0.16815920174121857	-0.5281039476394653	0.5224462151527405
titans	0.20807893574237823	-0.26264265179634094	-0.36366918683052063	0.09367187321186066	-0.26670318841934204	-0.2246357947587967	-0.26107311248779297	0.2399752289056778	0.10955658555030823	-0.07770437747240067	-0.14542753994464874	0.29037973284721375	0.27047574520111084	-0.17121370136737823	-0.1448756903409958	-0.0659601092338562	-0.18814870715141296	0.16078390181064606	0.1001238003373146	0.35927096009254456	-0.23675070703029633	0.04783983156085014	0.3527117669582367	0.0649939775466919	-0.3099009692668915	0.20787468552589417	-0.2620551288127899	0.105774886906147	0.1522677093744278	-0.01455785147845745	-0.003517389763146639	0.24488577246665955	-0.28406089544296265	-0.26463013887405396	0.015207899734377861	0.23981620371341705	-0.2610936164855957	0.3075576424598694	-0.22673572599887848	0.25383445620536804	0.018971983343362808	-0.284736305475235	0.35161930322647095	0.07823225110769272	-0.24517729878425598	0.2961810231208801	0.3333902359008789	0.20673950016498566	0.23061077296733856	0.1378314048051834	0.17816615104675293	0.10976482927799225	0.21167026460170746	0.32122156023979187	0.3298370838165283	0.28672993183135986	0.20024707913398743	0.3186504542827606	-0.26294559240341187	-0.2284955382347107	-0.30995973944664	-0.2845727503299713	-0.03796396777033806	0.06929918378591537	-0.30076056718826294	0.16595155000686646	-0.02259223721921444	-0.03495049476623535	0.040813148021698	-0.3010597229003906	-0.2005656659603119	0.17064663767814636	-0.0756961926817894	-0.29902565479278564	0.000607708643656224	-0.32682177424430847	0.2709992229938507	0.19963869452476501	0.29497063159942627	0.23404653370380402	0.21850250661373138	-0.0999021902680397	0.15120798349380493	0.32611018419265747	0.26492199301719666	-0.17278455197811127	0.2823672890663147	-0.12018509954214096	0.016119016334414482	-0.28833940625190735	-0.30882301926612854	0.342841237783432	-0.3336254954338074	0.14287975430488586	0.06413817405700684	-0.05073249712586403	-0.03718516230583191	-0.3308461308479309	0.24872368574142456	0.01605505496263504	0.2960600256919861	0.28157150745391846	0.04857707396149635	-0.24579140543937683	0.2036283314228058	0.3622015416622162	0.09551011770963669	0.30518242716789246	0.23946508765220642	0.02511938102543354	-0.37512925267219543	0.33590081334114075	0.34931087493896484	-0.20080403983592987	0.09124040603637695	0.21248877048492432	0.14047253131866455	0.28207603096961975	0.28141704201698303	-0.25057730078697205	0.2836776077747345	-0.23627696931362152	-0.3047011196613312	-0.2643337845802307	0.3142693042755127	0.22224073112010956	-0.3490808606147766	0.3123931288719177
commanders	-0.20576302707195282	-0.5875311493873596	-0.1235562413930893	0.5668025016784668	-0.22087286412715912	-0.0978294387459755	0.6289800405502319	0.045549988746643066	0.8077046275138855	-0.17841465771198273	0.34802356362342834	0.10260885953903198	0.38452619314193726	0.08500363677740097	-0.13711322844028473	-0.5441816449165344	0.5915342569351196	0.11850377172231674	-0.3006752133369446	0.4989859163761139	-0.002917780075222254	0.022354217246174812	0.1300603598356247	0.00912955217063427	-0.9543106555938721	0.7848668098449707	-0.48549336194992065	0.11111665517091751	0.3508486747741699	0.2831490933895111	-0.1944124400615692	0.4324100613594055	-0.3341224193572998	0.27715158462524414	-0.3688598871231079	0.21564945578575134	-0.275850385427475	0.49340105056762695	-0.13769759237766266	-0.061277296394109726	0.19628523290157318	-0.4194492697715759	0.2693963944911957	0.4855245053768158	0.16749326884746552	0.1256086677312851	0.4024204611778259	0.6215335130691528	0.55708247423172	-0.21054260432720184	-0.14657999575138092	0.3096947968006134	0.6719467043876648	0.06434619426727295	0.7013862133026123	-0.14904193580150604	0.3657156825065613	0.37390199303627014	-0.6179010272026062	-0.4891028106212616	-0.310952365398407	-0.29030969738960266	-0.2223806530237198	-0.43939119577407837	-0.3828084468841553	0.1151258572936058	-0.17551228404045105	-0.15902844071388245	0.6423316597938538	-0.06425260007381439	-0.7280193567276001	0.22388380765914917	0.015449093654751778	0.2258310467004776	0.22305963933467865	-0.15033337473869324	0.722613513469696	0.21731162071228027	0.40314629673957825	0.9605385065078735	-0.12276963144540787	-0.8228780031204224	0.23109567165374756	0.17321261763572693	0.2194400578737259	-0.46377265453338623	0.34585627913475037	-0.2939094603061676	-0.39677882194519043	-0.2905725836753845	0.2990246117115021	0.5861568450927734	0.23793925344944	0.53900146484375	-0.06408286094665527	-0.1691688746213913	0.12269946932792664	-0.4678645730018616	-0.11647236347198486	0.24156442284584045	-0.537672221660614	0.6877343654632568	-0.34073692560195923	-0.010501966811716557	0.7647131085395813	-0.5004682540893555	-0.07517095655202866	0.70601886510849	0.18820998072624207	0.25790074467658997	-0.05865702033042908	0.5759114623069763	-0.3963083028793335	-0.27262628078460693	0.2319028228521347	-0.13183102011680603	0.5549411773681641	-0.25342291593551636	-0.43380042910575867	-0.5092975497245789	0.24149134755134583	0.2654768228530884	-0.5895960330963135	0.13846158981323242	0.5591624975204468	0.39908745884895325	0.1334874927997589	0.46299153566360474
