cardinals	-0.143325537443161	0.17795659601688385	-0.13793519139289856	0.11978217959403992	0.11993958801031113	-0.14556239545345306	-0.12471482157707214	-0.1413062959909439	-0.1195506826043129	-0.1403171867132187	-0.13004660606384277	-0.08663345128297806	0.17558175325393677	0.14405183494091034	0.1276216357946396	0.14026962220668793	-0.10506702959537506	0.11323151737451553	-0.1602957397699356	-0.13800911605358124	-0.1679006665945053	-0.12977518141269684	-0.17472147941589355	0.14009271562099457	-0.1561056226491928	0.14013546705245972	-0.07374023646116257	-0.1373545527458191	0.09591321647167206	0.14718745648860931	-0.13409021496772766	-0.16796796023845673	-0.15576982498168945	0.13015924394130707	-0.13748463988304138	0.14547143876552582	0.1411711722612381	0.12291377037763596	-0.09986065328121185	0.14480626583099365	-0.11703652888536453	0.13332673907279968	0.14660069346427917	0.14620354771614075	0.15476146340370178	-0.12792184948921204	0.15509960055351257	-0.16218768060207367	-0.16823698580265045	-0.13276837766170502	0.1450234204530716	-0.14744071662425995	-0.1267656534910202	-0.13098792731761932	0.09118229895830154	0.13242875039577484	-0.1343754529953003	-0.12279940396547318	-0.12898315489292145	0.13889583945274353	0.1469203680753708	-0.1500486135482788	0.14538124203681946	-0.12951582670211792	-0.0557328499853611	0.16652274131774902	-0.13138355314731598	-0.1448812186717987	0.13904593884944916	-0.15811872482299805	0.12611991167068481	0.12301461398601532	-0.06724024564027786	-0.13240806758403778	-0.10802511125802994	-0.057780105620622635	-0.14864246547222137	0.10937143117189407	-0.13873305916786194	0.12975825369358063	0.14299553632736206	0.1242804303765297	-0.13603301346302032	0.1682281345129013	0.15109889209270477	-0.13239015638828278	-0.141919806599617	0.14174167811870575	0.14126525819301605	-0.10012289136648178	-0.13112883269786835	0.16516152024269104	-0.16793550550937653	-0.16930162906646729	0.12512385845184326	-0.16428162157535553	-0.12681899964809418	0.1622113138437271	-0.16223743557929993	-0.13285516202449799	0.14896194636821747	-0.13566648960113525	0.13595621287822723	0.15358662605285645	0.13486215472221375	-0.14856505393981934	0.1491016149520874	-0.1639525443315506	0.15727365016937256	0.1379396617412567	-0.10871760547161102	-0.12795548141002655	-0.13765683770179749	0.1490742266178131	-0.1381443589925766	-0.1608884483575821	0.13929520547389984	-0.14073315262794495	0.1718665212392807	0.130641371011734	0.16746850311756134	-0.14938266575336456	-0.16744396090507507	0.1365584135055542	0.10002277791500092	-0.13143661618232727	0.1389574408531189	0.10664500296115875
falcons	0.04695255681872368	-0.039725400507450104	-0.04044057056307793	-0.04330883175134659	0.01797718182206154	-0.035598061978816986	-0.04206199571490288	0.0206284262239933	0.008367549628019333	-0.008279584348201752	-0.018831754103302956	-0.0378081314265728	0.01737375184893608	0.030716601759195328	0.02809659019112587	-0.0472349189221859	-0.02739882469177246	0.02819225564599037	-0.049082256853580475	-0.011885501444339752	0.040645185858011246	0.04739469662308693	0.024323154240846634	-0.00032837316393852234	-0.025836920365691185	-0.010655760765075684	0.007213186472654343	-0.030662167817354202	0.02210545912384987	0.013812985271215439	0.03469100967049599	-0.042298950254917145	0.02864307537674904	0.04275573417544365	0.013565991073846817	0.019096482545137405	-0.02188117615878582	0.04727477952837944	0.04777821525931358	0.0019134506583213806	-0.032556548714637756	-0.04987119510769844	0.027893152087926865	0.010978005826473236	0.016164254397153854	-0.04291347414255142	-0.013791251927614212	-0.045848190784454346	0.013223301619291306	-0.010986171662807465	-0.03129810094833374	0.03063896670937538	0.034020934253931046	0.01772380992770195	-0.02383561246097088	0.03128892555832863	-0.03845079988241196	-0.04487394168972969	0.0427507646381855	0.030832532793283463	-0.024108661338686943	-0.03655197471380234	-0.011421121656894684	0.031258318573236465	-0.040946125984191895	-0.021783186122775078	-0.02824576012790203	0.04852652922272682	0.04161794111132622	0.01237032562494278	-0.007562626153230667	-0.017519474029541016	-0.008270669728517532	-0.012209068983793259	0.017367888242006302	0.009388245642185211	0.028313007205724716	0.02099059894680977	-0.01948496140539646	-0.026033366098999977	0.041501130908727646	-0.011696148663759232	0.04788508638739586	-0.03088974952697754	-0.0006189234554767609	0.04111962392926216	-0.013706326484680176	-0.02218625508248806	-0.010719023644924164	0.010158218443393707	0.020330343395471573	0.010184228420257568	0.010125815868377686	-0.02017793618142605	-0.04804438352584839	-0.04345826059579849	0.0009061805903911591	-0.016619015485048294	-0.012212980538606644	-0.03820241615176201	0.025323975831270218	-0.014538384974002838	0.009052347391843796	0.04836897924542427	0.005111169070005417	-0.0044321417808532715	-0.012424301356077194	-0.035009004175662994	-0.03981313854455948	-0.03895016759634018	-0.0367993600666523	-0.03682798147201538	0.04369138553738594	-0.03092787228524685	0.026188742369413376	0.03672710433602333	0.026844393461942673	-0.009125102311372757	-0.01971341483294964	-0.04618852213025093	-0.04795433208346367	-0.01248471811413765	-0.008872389793395996	-0.03679599612951279	0.02141556516289711	0.014385011047124863	0.02493588998913765	0.03364146873354912
ravens	-0.14136146008968353	-0.09924155473709106	-0.15082909166812897	0.08246765285730362	-0.11692871153354645	-0.16152741014957428	0.13286179304122925	-0.149823859333992	-0.14579150080680847	-0.03338202089071274	0.12177281826734543	0.1479860246181488	0.14800970256328583	-0.14011570811271667	-0.16423571109771729	0.04096883535385132	0.16907601058483124	-0.15245461463928223	-0.1289404332637787	-0.16667844355106354	-0.12692897021770477	0.16491925716400146	-0.14253178238868713	-0.13222187757492065	-0.178294837474823	-0.16434721648693085	0.1416940689086914	-0.1361248940229416	-0.06596703827381134	-0.09405872970819473	0.14016735553741455	-0.12518490850925446	-0.14807769656181335	-0.1587129533290863	-0.13817597925662994	-0.1068117618560791	-0.13898822665214539	0.020131414756178856	-0.10368426889181137	-0.16350778937339783	0.16743077337741852	-0.1685856729745865	-0.15414895117282867	0.17702797055244446	0.11638326942920685	-0.13335932791233063	-0.04938528314232826	0.14398667216300964	0.11437103152275085	-0.0005471562035381794	0.16456779837608337	-0.1702134609222412	-0.1490612030029297	-0.10422346740961075	-0.12869040668010712	0.13267111778259277	0.16829513013362885	-0.15146245062351227	0.1687091886997223	-0.15503203868865967	0.12284771353006363	0.15247145295143127	0.10305353254079819	0.16506057977676392	-0.10617593675851822	0.14021426439285278	-0.14331437647342682	0.12211621552705765	0.11795094609260559	-0.062211696058511734	-0.13790485262870789	0.10779942572116852	-0.16557206213474274	0.15727008879184723	0.14930370450019836	-0.13034698367118835	0.11254455149173737	-0.10737346857786179	0.07429560273885727	0.16102911531925201	-0.1303674429655075	-0.16079656779766083	0.14101411402225494	-0.11411488801240921	0.1445886343717575	-0.16839458048343658	0.17391858994960785	0.13399328291416168	0.17359678447246552	0.1557987779378891	-0.1656537503004074	-0.08257060497999191	0.10003168135881424	-0.1418585330247879	0.041712984442710876	0.15876951813697815	-0.13273918628692627	0.165882870554924	-0.16372191905975342	0.16322004795074463	-0.16891416907310486	-0.15961778163909912	0.16548395156860352	0.13430431485176086	-0.17142193019390106	-0.12675166130065918	-0.1397748738527298	0.1504776030778885	0.0730261355638504	-0.01578371971845627	0.12569382786750793	-0.13071765005588531	-0.1542377471923828	0.13439694046974182	-0.050589196383953094	0.13791505992412567	0.1563485860824585	0.13652773201465607	-0.09747374802827835	0.16003268957138062	0.1263393610715866	-0.12743403017520905	0.08876247704029083	0.1093921884894371	0.13818296790122986	-0.15821129083633423	-0.13861648738384247	0.16075342893600464
bills	-0.002576041966676712	-0.02890179120004177	-0.004590116441249847	0.03675981983542442	0.01799711212515831	0.025001022964715958	0.04235425963997841	-0.03450505807995796	0.03914940729737282	0.04607098177075386	0.02212519571185112	-0.027311766520142555	-0.03225289657711983	0.010620296001434326	0.025115761905908585	-0.028359198942780495	0.010369490832090378	0.04268066957592964	-0.020999157801270485	0.019057001918554306	-0.03726627677679062	-0.049704600125551224	-0.0036422722041606903	-0.041583336889743805	-0.03468271344900131	-0.011371146887540817	-0.013356447219848633	0.02466663345694542	0.0006141550838947296	0.028222892433404922	-0.020663905888795853	0.009080279618501663	-0.005064964294433594	0.0469042994081974	-0.018065057694911957	-0.011118996888399124	-0.04819760471582413	0.03163328394293785	0.025053907185792923	0.045576345175504684	0.006978381425142288	0.02487168088555336	0.01745554432272911	0.00014133378863334656	-0.021610308438539505	0.04043802246451378	0.0008290186524391174	0.024911213666200638	0.0482819564640522	0.035546254366636276	-0.0070080384612083435	-0.03815755993127823	-0.003818891942501068	0.0012355558574199677	-0.011546052992343903	0.03158661350607872	0.030439946800470352	-0.03606778383255005	0.013713423162698746	-0.04998216778039932	-0.043763112276792526	0.032602060586214066	0.026505474001169205	0.030970308929681778	-0.01394122838973999	0.02928919717669487	-0.028574896976351738	-0.012131620198488235	0.0037902966141700745	-0.004845619201660156	-0.048118412494659424	0.02498919889330864	0.0324457548558712	-0.027873456478118896	-0.0060505978763103485	0.018274370580911636	-0.03347442299127579	-0.03484909608960152	0.0017214417457580566	0.014395926147699356	-0.0404583215713501	0.03689766302704811	-0.03679250553250313	-0.0020753368735313416	-0.04542051628232002	-0.04619324207305908	-0.03529538959264755	-0.03160092979669571	0.04220059886574745	-0.032137513160705566	-0.010355878621339798	-0.0291631817817688	-0.02169288508594036	0.04004089906811714	0.022878240793943405	-0.009616803377866745	0.002614639699459076	-0.047389376908540726	0.024859342724084854	0.03595328703522682	0.014637257903814316	-0.048816800117492676	0.001581083983182907	0.018013570457696915	0.017782416194677353	0.007399044930934906	0.04423249885439873	0.01385117694735527	0.02773800864815712	0.03087632730603218	-0.023510325700044632	0.015090059489011765	-0.004463218152523041	-0.041995059698820114	0.03918658569455147	-0.03584946319460869	-0.04865908622741699	-0.033209145069122314	-0.04645589739084244	-0.04068572446703911	0.026338685303926468	-0.021583938971161842	0.006103433668613434	-0.029799187555909157	0.04552941396832466	-0.004212118685245514	-0.03986166790127754	-0.049179043620824814
panthers	0.040105048567056656	-0.03669384866952896	-0.002316989004611969	-0.04247777536511421	-0.009684909135103226	0.008762121200561523	-0.022001266479492188	-0.030536770820617676	0.043095435947179794	0.02631310001015663	0.04544118419289589	-0.007772885262966156	0.03133639320731163	-0.03162217140197754	0.03342084959149361	-0.011639725416898727	-0.027387047186493874	-0.04768381267786026	0.036868464201688766	-0.00920194387435913	-0.04867902025580406	0.04753711447119713	-0.002054870128631592	-0.02538522519171238	-0.04261237382888794	0.01610715314745903	0.027921367436647415	0.03408319875597954	-0.04386333376169205	0.0490456260740757	0.031146731227636337	-0.02264183759689331	0.046320606023073196	-0.0018929354846477509	0.023659493774175644	0.027701091021299362	0.034205082803964615	-0.020269596949219704	-0.046983566135168076	0.03334139660000801	0.03973281756043434	-0.04625904560089111	-0.0043402910232543945	0.01955365017056465	0.016347873955965042	-0.0036258473992347717	0.02566138282418251	-0.006673693656921387	0.022117186337709427	-0.020186079666018486	0.025870826095342636	-0.02120368555188179	0.012701001018285751	0.03604110702872276	0.025395695120096207	-0.001098882406949997	-0.01240517944097519	0.04183277115225792	0.02912498638033867	-0.021343041211366653	-0.028872942551970482	0.032424990087747574	0.024043787270784378	0.010685540735721588	0.013392571359872818	0.0042260512709617615	-0.017148543149232864	-0.04817814752459526	0.023942355066537857	0.021361541002988815	0.008121240884065628	0.038430143147706985	0.027333583682775497	-0.027831196784973145	-0.049510419368743896	0.04944528266787529	-0.002485893666744232	0.016096603125333786	-0.03961721807718277	0.03454916551709175	-0.03373162820935249	0.022075247019529343	0.021646391600370407	-0.022569049149751663	-0.00987476110458374	-0.025916362181305885	0.03619110956788063	-0.014313530176877975	-0.012362144887447357	-0.040891386568546295	-0.024189675226807594	0.044489335268735886	-0.00979088619351387	0.024265673011541367	0.020560991019010544	-0.041929446160793304	0.03732326999306679	0.03061482682824135	0.028205517679452896	-0.020334530621767044	-0.010609246790409088	0.010828576982021332	-0.03516503423452377	0.009382449090480804	0.020406927913427353	-0.005186866968870163	0.02622136101126671	-0.04556862264871597	-0.013165213167667389	0.025460194796323776	0.0018870942294597626	-0.03320089727640152	0.04838627949357033	0.045884016901254654	0.03262360021471977	0.007152259349822998	0.00965334102511406	-0.005817137658596039	0.030427109450101852	-0.04112297296524048	-0.019412804394960403	-0.01674894243478775	0.013108883053064346	-0.026992643252015114	-0.02114042080938816	-0.02262324094772339	-0.025033319368958473	-0.045110154896974564
bears	-0.13438691198825836	0.13447564840316772	-0.15219315886497498	-0.10490871220827103	0.15252813696861267	0.08385126292705536	-0.13222962617874146	-0.16895002126693726	-0.1577046662569046	0.1569388508796692	0.16691213846206665	-0.1432378590106964	-0.1662345975637436	-0.14783547818660736	-0.10565604269504547	-0.16234998404979706	-0.14019900560379028	-0.09160088002681732	-0.11423372477293015	0.0988592803478241	0.15495292842388153	-0.131804957985878	0.16136901080608368	-0.15685109794139862	-0.1738765686750412	0.16501127183437347	0.16161341965198517	0.07980980724096298	-0.1261235773563385	-0.1576223522424698	-0.14005376398563385	-0.1347283571958542	-0.13002844154834747	-0.16314248740673065	-0.09510932117700577	0.11163697391748428	0.1760186403989792	-0.0732755959033966	0.12257781624794006	-0.17286629974842072	-0.08824793994426727	0.16340331733226776	0.03238862007856369	-0.08780696988105774	-0.053967222571372986	-0.09881975501775742	0.11845389753580093	0.10452881455421448	-0.14821375906467438	0.17034202814102173	-0.08028783649206161	-0.10664721578359604	-0.11296778917312622	-0.0983320027589798	0.13282175362110138	-0.004800112452358007	-0.15322768688201904	-0.15504328906536102	0.15602092444896698	0.16793550550937653	0.17457710206508636	-0.15795928239822388	0.12960484623908997	0.12145055830478668	-0.12149638682603836	-0.10635379701852798	-0.13385219871997833	0.14180976152420044	0.10092158615589142	-0.1492251306772232	0.12143377959728241	0.1665550023317337	0.1455329954624176	-0.12064328044652939	0.07284721732139587	0.10384047776460648	-0.1739386022090912	0.14445289969444275	-0.1609826683998108	0.09792128950357437	0.16526682674884796	0.1576801985502243	-0.1618213653564453	0.16705237329006195	-0.11577142775058746	-0.17439162731170654	0.12039970606565475	-0.14625760912895203	-0.17529453337192535	-0.1452416628599167	0.13521835207939148	-0.13834698498249054	0.09083277732133865	-0.16463738679885864	-0.13747183978557587	0.13270112872123718	0.12856338918209076	0.1542481631040573	0.0840878114104271	-0.15521357953548431	0.12364393472671509	-0.1062825545668602	-0.16093257069587708	0.113976389169693	-0.13196437060832977	-0.12316900491714478	0.16756264865398407	0.17080700397491455	0.1411077231168747	0.14332711696624756	0.14333845674991608	-0.13955911993980408	-0.1100844293832779	0.16300064325332642	-0.1462029665708542	-0.12244556844234467	0.0804135650396347	0.09411434084177017	0.111970916390419	0.16513371467590332	-0.1114933043718338	-0.06117582321166992	-0.10618821531534195	-0.09491701424121857	-0.11553702503442764	-0.1722082495689392	0.005733404774218798	0.11076424270868301
bengals	0.015041355043649673	0.04378246143460274	-0.03912947326898575	0.01951911672949791	0.009120464324951172	-0.016534853726625443	0.028667006641626358	-0.017484474927186966	0.019192662090063095	0.03820014372467995	0.034881267696619034	0.04596630111336708	0.037903789430856705	0.026929985731840134	-0.015126179903745651	-0.005244564265012741	-0.012249398976564407	0.03789721801877022	-0.02292628400027752	-0.037297286093235016	-0.00497523695230484	-0.00021724775433540344	0.04826414957642555	0.04647362604737282	0.020901110023260117	0.0478484146296978	-0.002047218382358551	-0.007700085639953613	-0.024919284507632256	0.04648859426379204	0.03973576799035072	0.003272213041782379	0.005320142954587936	0.02856910601258278	0.018362250179052353	0.00559534877538681	0.019478928297758102	-0.048968613147735596	0.015669826418161392	0.008712686598300934	0.049546848982572556	-0.024319374933838844	-0.04132890701293945	-0.01706676557660103	0.019582662731409073	0.016187038272619247	-0.02189183235168457	-0.001957368105649948	0.002070080488920212	0.04644198343157768	-0.02443307638168335	0.02469198778271675	-0.006161939352750778	-0.00699981302022934	0.029663946479558945	-0.04909252002835274	-0.04369479417800903	-0.042922258377075195	0.019554149359464645	-0.037402115762233734	-0.04053787142038345	-0.00717853382229805	-0.0326554998755455	0.012124203145503998	-0.032646287232637405	0.0027219541370868683	-0.012205898761749268	0.029890868812799454	0.007536649703979492	0.011464416980743408	-0.01591823250055313	-0.029693543910980225	0.037234749644994736	-0.015645813196897507	0.024571087211370468	0.03896604850888252	0.0151260606944561	-0.01403726264834404	0.027083050459623337	-0.03605790063738823	-0.014751076698303223	-0.026542460545897484	0.0170113705098629	0.03572649136185646	0.021896887570619583	-0.001214791089296341	0.041777562350034714	-0.036632560193538666	-0.024210108444094658	0.005831371992826462	0.04701944813132286	0.03426888957619667	0.03052748367190361	0.013084601610898972	0.03280258551239967	0.016484681516885757	-0.028759216889739037	0.03482559695839882	0.025231633335351944	0.012897718697786331	-0.024362945929169655	-0.03836347907781601	-0.022275079041719437	-0.028540754690766335	-0.0027291662991046906	-0.038891829550266266	-0.020643318071961403	-0.012263346463441849	0.02737361565232277	0.04637453332543373	0.01882180944085121	-0.042330529540777206	-0.012367390096187592	0.02732822671532631	0.028513196855783463	0.04426009580492973	-0.04601309448480606	0.006958663463592529	0.03923368826508522	0.03358575329184532	-0.02945646084845066	0.01592857763171196	0.040930334478616714	-0.001357734203338623	-0.02155330218374729	0.03633798286318779	-0.007490195333957672	0.030244145542383194
browns	-0.03363262489438057	-0.049621034413576126	0.01995457336306572	0.044176045805215836	-0.04875699430704117	-0.029926300048828125	0.03721785917878151	-0.035996340215206146	0.03625333681702614	-0.04156624153256416	-0.030994975939393044	-0.0068458206951618195	-0.004589725285768509	0.04237080737948418	0.009295366704463959	-0.04272054508328438	-0.015965916216373444	0.04172511026263237	-0.0412273034453392	0.04662441089749336	0.03026561811566353	-0.01790384203195572	0.03445664420723915	0.04937589541077614	-0.0158439502120018	-0.03227999061346054	0.0246209017932415	0.029012370854616165	0.01537502184510231	-0.0380144938826561	-0.045309748500585556	-0.01674659177660942	0.003001142293214798	0.003316067159175873	0.005383837968111038	-0.02733720652759075	-0.04377409443259239	0.034452106803655624	-0.022038554772734642	-0.0017814412713050842	0.035529229789972305	-0.04008777067065239	-0.009830154478549957	-0.01022343710064888	-0.02695465087890625	-0.015032697468996048	0.036486197263002396	0.018689725548028946	-0.018390942364931107	0.03255592659115791	-0.010713767260313034	-0.035175621509552	-0.01677737385034561	0.023414302617311478	-0.015520893037319183	-0.01202685758471489	-0.008560337126255035	0.002240978181362152	-0.04761555418372154	0.03479907289147377	0.03902960941195488	0.007571958005428314	-0.03920616954565048	-0.0071541666984558105	0.019060861319303513	0.025259438902139664	0.045494262129068375	-0.01565007120370865	-0.00900588184595108	0.01666722074151039	-0.03332219272851944	0.042240943759679794	0.03381696715950966	-0.043746449053287506	-0.007336534559726715	0.047275591641664505	0.024577941745519638	0.017958570271730423	0.015615928918123245	0.03082427754998207	0.04663247987627983	0.04066650941967964	-0.02127664163708687	0.00608212873339653	0.010974563658237457	0.018754813820123672	0.030087683349847794	-0.0332515612244606	-0.03454990312457085	0.020468782633543015	0.046994153410196304	-0.027064180001616478	0.036539170891046524	-0.01705709844827652	-0.037673819810152054	-0.03369947522878647	-0.014691375195980072	0.014885429292917252	-0.01848309114575386	-0.006085656583309174	-0.042189933359622955	-0.03552214056253433	0.0013918504118919373	-4.30569052696228e-05	-0.030582034960389137	0.0009311214089393616	-0.03938812017440796	-0.018047668039798737	0.0026575811207294464	0.031863320618867874	-0.03552055358886719	-0.01651604101061821	-0.047718264162540436	0.023648682981729507	0.009558998048305511	-0.04891343042254448	0.015301037579774857	0.003157723695039749	0.0178709514439106	0.019356105476617813	0.004974745213985443	-0.04060084745287895	-0.016163934022188187	-0.024870801717042923	-0.02018280141055584	-0.02141190879046917	-0.039182864129543304	0.03548036888241768
cowboys	0.013954948633909225	-0.03262162208557129	0.042132679373025894	0.014271151274442673	0.012796629220247269	-0.0007003173232078552	-0.02581721544265747	0.032561566680669785	-0.0256634708493948	0.006742466241121292	0.016150597482919693	-0.0066049471497535706	-0.010651815682649612	-0.00476909801363945	0.0029178038239479065	0.031682323664426804	0.0035848617553710938	-0.03082895278930664	0.04453946277499199	0.001384008675813675	0.03896219655871391	0.04691025987267494	0.02508603408932686	-0.03885631635785103	0.013498988002538681	-0.039935242384672165	-0.011973727494478226	0.029635194689035416	-0.0438365712761879	0.0383022166788578	0.03837347403168678	-0.031093263998627663	0.019784461706876755	-0.01984359137713909	-0.019165504723787308	-0.039110682904720306	0.016870390623807907	0.043900344520807266	0.007670152932405472	-0.016149021685123444	-0.00935983657836914	-0.028956282883882523	-0.019828354939818382	0.04196382686495781	0.03402620926499367	0.002198468893766403	-0.04140502214431763	-0.04258161783218384	-0.00342477485537529	0.04929112270474434	-0.03314356878399849	-0.012957405298948288	0.008207939565181732	-0.029633987694978714	-0.012262225151062012	-0.039924800395965576	-0.029967809095978737	-0.028198182582855225	0.02226022258400917	-0.04160956293344498	-0.019698668271303177	-0.006136678159236908	0.03385099396109581	-0.028629684820771217	-0.016621671617031097	-0.04440958425402641	0.03196743503212929	-0.015066217631101608	-0.015700437128543854	-0.044935572892427444	0.02499208226799965	0.03373352065682411	-0.041681863367557526	-0.018854117020964622	0.01025380939245224	-0.03140038251876831	-0.038303982466459274	-0.005039501935243607	0.04658147320151329	0.04088951274752617	-0.012254584580659866	0.03617967292666435	-0.01839541271328926	-3.1925737857818604e-05	-0.03341292217373848	0.04263538494706154	-0.024500012397766113	-0.02862267568707466	-0.01952129602432251	-0.03876035287976265	-0.02319355122745037	-0.011744070798158646	-0.047014620155096054	0.029808569699525833	0.025706831365823746	-0.01117396354675293	0.0061445459723472595	-0.01192241907119751	0.03482235595583916	0.014078151434659958	-0.017068184912204742	-0.008115135133266449	-0.03789640590548515	-0.03417356312274933	0.021724846214056015	0.017756011337041855	-0.030189717188477516	-0.04675215482711792	-0.003776751458644867	-0.04873162508010864	0.027016546577215195	0.023128774017095566	-0.03770536184310913	-0.028210951015353203	-0.0016298070549964905	0.047316137701272964	0.032082799822092056	0.03972543403506279	-0.042583514004945755	-0.01840655878186226	0.0027032122015953064	-0.026760375127196312	-0.025891829282045364	-0.02072122134268284	-0.014762483537197113	0.0058304667472839355	0.034043554216623306	0.007842816412448883
broncos	-0.04962510988116264	0.0003291480243206024	-0.04175532981753349	-0.010902535170316696	-0.010191071778535843	0.02358352020382881	-0.021604513749480247	0.03569681569933891	-0.033445894718170166	0.04181792959570885	0.02519432082772255	-0.041102610528469086	-0.024148179218173027	-0.046499527990818024	0.04499911144375801	0.03677042946219444	0.020731497555971146	0.005553901195526123	0.032861318439245224	-0.0487152598798275	0.004861593246459961	0.043260183185338974	0.028579089790582657	0.04534221068024635	0.04721489176154137	0.02200474962592125	-0.007027246057987213	-0.011406958103179932	-0.024699855595827103	-0.045248426496982574	0.01591191068291664	0.020456921309232712	-0.03507794067263603	0.005809832364320755	0.009902335703372955	0.033574510365724564	-0.0054240114986896515	-0.00010300800204277039	0.030026081949472427	-0.0475924015045166	-0.009087622165679932	0.0386601947247982	0.011695731431245804	-0.03028900735080242	-0.014904331415891647	-0.006722737103700638	0.01747000589966774	0.0033896081149578094	-0.03738647699356079	-0.03561309725046158	0.02120932564139366	-0.024611247703433037	-0.029208863154053688	0.007804978638887405	-0.01047975942492485	-0.02385917864739895	-0.021001076325774193	-0.04333369806408882	0.01901860162615776	-0.0010708943009376526	0.029997479170560837	0.028172049671411514	-0.015216708183288574	0.02024627849459648	-0.03592817857861519	0.002241574227809906	-0.024948537349700928	-0.013905096799135208	-0.0008290298283100128	-0.004096128046512604	0.016240645200014114	0.046483878046274185	-0.04499896988272667	-0.012365151196718216	0.034107375890016556	0.03480834141373634	0.03674307093024254	-0.018374286592006683	0.03373337164521217	-0.04828289896249771	-0.0293359886854887	-0.01766951009631157	-0.02706778049468994	-0.014208711683750153	0.02555288001894951	-0.01536569744348526	-0.010216735303401947	0.03082803264260292	0.025820288807153702	-0.04912647232413292	-0.0018441788852214813	0.04763462767004967	0.02102968469262123	0.04565627500414848	0.048017870634794235	-0.043464016169309616	-0.020116198807954788	-0.0002589225769042969	0.01985769346356392	-0.010526049882173538	0.0332600362598896	0.0271117202937603	-0.03230265527963638	0.04746324196457863	-0.005739249289035797	-0.03294682502746582	-0.01888073794543743	0.03662243112921715	-0.04069123417139053	0.038651276379823685	-0.036871135234832764	-0.03617943450808525	-0.04887811094522476	-0.019503295421600342	0.03752415254712105	-0.028108490630984306	0.04250823333859444	0.0180521123111248	-0.012556005269289017	0.028241906315088272	-0.03520007058978081	0.04164860025048256	0.03974524512887001	-0.0412425771355629	0.004788197576999664	-0.014742694795131683	0.012387238442897797	0.009322572499513626
lions	-0.010194756090641022	0.0038877613842487335	0.041314031928777695	-0.006837774068117142	0.03484124317765236	0.024122480303049088	0.008089937269687653	0.012372683733701706	0.011697530746459961	-0.04110042005777359	-0.022299302741885185	0.030675578862428665	0.029602710157632828	-0.004706133157014847	-0.04902252182364464	0.012039460241794586	0.031404759734869	0.01249682903289795	-0.048684682697057724	0.025489483028650284	0.01688304916024208	-0.019969796761870384	-0.04901864752173424	0.04415854439139366	0.04191494360566139	-0.03265491873025894	0.015331614762544632	0.008263777941465378	0.027664367109537125	0.04100390896201134	0.035257648676633835	0.04326201602816582	-0.013668704777956009	0.022228989750146866	0.022023092955350876	-0.01852034404873848	-0.007620871067047119	0.016681555658578873	0.049434613436460495	-0.035406626760959625	-0.009022962301969528	0.04527367278933525	0.04757678881287575	-0.00986877828836441	-0.014925919473171234	0.006098903715610504	-0.02690587006509304	0.025692109018564224	0.0329635851085186	0.026575136929750443	0.037804652005434036	0.015720967203378677	-0.04851886257529259	0.03379324451088905	-0.04681510850787163	0.0003682859241962433	-0.03116004541516304	0.044794511049985886	-0.01254250854253769	-0.02862422540783882	0.031216274946928024	-0.03438926860690117	0.03906240686774254	0.011898301541805267	-0.049472201615571976	0.009742595255374908	-0.014890052378177643	-0.008363950997591019	-0.03793666511774063	-0.044620584696531296	0.007080685347318649	0.03170302137732506	0.01733136549592018	-0.01262439414858818	-0.0033001527190208435	-0.040715694427490234	0.01745954528450966	0.014558020979166031	0.04501453414559364	0.02023419365286827	-0.040829312056303024	-0.037882350385189056	0.03272179141640663	0.021335948258638382	0.03917234018445015	0.004336178302764893	0.0335758812725544	-0.013741038739681244	-0.04056738689541817	-0.026321852579712868	-0.008958280086517334	0.00119013711810112	-0.04991212114691734	0.014890935271978378	0.03143833950161934	0.03073256090283394	-0.04208792373538017	0.00014983490109443665	0.04086723551154137	0.019286584109067917	-0.02510683611035347	0.011495482176542282	-0.025631118565797806	-0.000769294798374176	0.03159644827246666	-0.04029512405395508	-0.036156751215457916	0.04990542307496071	0.03225603327155113	0.02501438930630684	0.02646353468298912	0.033647071570158005	0.0463249571621418	0.006756305694580078	0.03240417316555977	-0.016662370413541794	-0.025037074461579323	-0.026543188840150833	-0.03276895359158516	0.02860483154654503	-0.04921950027346611	-0.026691270992159843	-0.00034549087285995483	-0.021007036790251732	-0.0335564985871315	-0.011090420186519623	-0.03631711006164551	-0.005750726908445358
packers	0.011428989470005035	-0.02395397424697876	-0.02283409796655178	0.02834445610642433	-0.014013539999723434	0.04520881548523903	-0.03136718273162842	-0.01223675161600113	-0.015962302684783936	0.048064377158880234	0.006487511098384857	0.00039452314376831055	0.045693885535001755	6.29909336566925e-05	-0.04924262687563896	0.049500610679388046	-0.04074382781982422	-0.007621429860591888	-0.04261615499854088	-0.009565532207489014	0.0486723817884922	0.03702882304787636	0.036788370460271835	0.00544748455286026	0.02709425613284111	0.006421148777008057	-0.026905883103609085	0.023411128669977188	0.012481845915317535	-0.0018539540469646454	0.0038574449717998505	-0.014835070818662643	-0.0035262219607830048	-0.04989288002252579	-0.039204586297273636	-0.03834151104092598	-0.035116590559482574	-0.0008111223578453064	0.03455069288611412	0.03387392684817314	-0.0026390552520751953	-0.0345030315220356	-0.04677177593111992	0.03892092779278755	0.044251587241888046	0.04775038734078407	0.03440382704138756	0.030691053718328476	0.02002674713730812	-0.043766237795352936	-0.014323126524686813	-0.033489108085632324	0.0005596652626991272	-0.007153559476137161	-0.04641077667474747	-0.022213805466890335	-0.00544511154294014	0.014695968478918076	-0.018276143819093704	-0.016821585595607758	0.010583270341157913	-0.029865896329283714	0.0374135859310627	-0.005375266075134277	-0.04442708566784859	-0.03900204971432686	-0.047424353659152985	-0.03816826269030571	0.022048700600862503	0.010800350457429886	-0.04473474249243736	-0.023165643215179443	0.006568588316440582	0.0013944394886493683	-0.025070954114198685	-0.026693059131503105	0.016921114176511765	0.02718571200966835	0.019365381449460983	-0.02757849730551243	0.020023200660943985	-0.03887896612286568	-0.03336115926504135	-0.0015562176704406738	0.0480952151119709	-0.010078668594360352	0.004419256001710892	0.03610719367861748	0.018534068018198013	0.0426936037838459	-0.0037492625415325165	0.03612462058663368	0.012081362307071686	-7.949024438858032e-05	-0.010965000838041306	0.01917913183569908	0.03992725536227226	0.03706720098853111	-0.03967410326004028	-0.04398603364825249	0.027744878083467484	-0.02548135630786419	0.024958256632089615	-0.028809010982513428	0.03965509310364723	0.02250189706683159	0.03295402601361275	-0.016279853880405426	-0.03497439622879028	-0.014950953423976898	0.009611178189516068	0.0050130486488342285	-0.017603598535060883	-0.042392659932374954	-0.011787794530391693	-0.02086200751364231	0.01306922361254692	-0.041590213775634766	0.00028058141469955444	-0.013582728803157806	0.04340188577771187	-0.02212822437286377	-0.02746276929974556	-0.01985098235309124	0.025660548359155655	0.006924450397491455	-0.013273488730192184	-0.028570091351866722
texans	-0.03383012115955353	-0.0057929158210754395	0.016654718667268753	-0.014803636819124222	0.01721436157822609	0.046142879873514175	0.044675540179014206	-0.03150177001953125	-0.03444664552807808	0.04451214149594307	0.0399542935192585	0.0106780044734478	0.01080465316772461	0.026211190968751907	0.02865396812558174	0.016430828720331192	0.006374727934598923	0.008109092712402344	-0.01485220342874527	0.01868331804871559	0.0062756165862083435	0.04162689670920372	-0.0372791513800621	-0.021569812670350075	0.02733086422085762	0.032506074756383896	0.025231149047613144	-0.013350628316402435	-0.0054891593754291534	8.859485387802124e-05	-0.006821073591709137	0.044788967818021774	-0.026308132335543633	-0.014543484896421432	0.03426491096615791	0.032823432236909866	-0.029278159141540527	0.012940790504217148	0.04927351698279381	0.017821256071329117	-0.03099200688302517	0.0326085202395916	0.006966792047023773	0.014712344855070114	0.02974429354071617	0.04553879424929619	0.017769966274499893	-0.03741954639554024	0.031059864908456802	0.041221823543310165	0.04388396814465523	0.04884547367691994	-0.008081220090389252	0.04573860391974449	-0.0022463425993919373	-0.02188434638082981	0.04307000711560249	-0.003268849104642868	-0.042054593563079834	-0.004737533628940582	-0.010357916355133057	-0.004434693604707718	0.02014874294400215	0.04505152627825737	0.027318309992551804	-0.00958721712231636	0.006699513643980026	-0.02356705628335476	0.04685555770993233	0.011148929595947266	0.03566182777285576	-0.029905999079346657	-0.0043535009026527405	-0.03512633964419365	-0.012889493256807327	0.025864508002996445	-0.017913758754730225	0.00966719537973404	-0.000993393361568451	0.04320063814520836	0.024892453104257584	-0.001788996160030365	0.02385050430893898	-0.045348990708589554	-0.028640687465667725	0.03926901891827583	0.0308992899954319	-0.02398890256881714	-0.014897871762514114	-0.04846740886569023	-0.013960778713226318	-0.009140800684690475	0.013508167117834091	-0.005752049386501312	0.0005179047584533691	0.03545219078660011	0.04104112461209297	0.008778475224971771	0.012463830411434174	-0.005022905766963959	0.03812423720955849	0.0012987852096557617	-0.039024293422698975	0.02459956333041191	-0.03550565242767334	0.013736214488744736	-0.02152954414486885	0.009561657905578613	-0.03565497323870659	0.04255196824669838	-0.012445677071809769	0.024087879806756973	0.046031299978494644	-0.017852652817964554	-0.0003571733832359314	0.0021522417664527893	-0.023657048121094704	-0.011566292494535446	-0.01263207197189331	0.03590681776404381	-0.030400622636079788	0.037558022886514664	-0.03022763691842556	-0.01194613054394722	-0.006633233278989792	-0.01829296350479126	-0.014979541301727295	0.017745766788721085
colts	-0.0191195011138916	0.007399857044219971	0.042388666421175	-0.03753858804702759	0.02119586244225502	-0.02451390027999878	0.006795395165681839	0.02968958392739296	0.041665975004434586	0.007367514073848724	0.017656002193689346	-0.03720726817846298	-0.004357505589723587	0.009705841541290283	-0.016808032989501953	0.03528270497918129	-0.014602385461330414	-0.019279802218079567	0.03952188417315483	0.023804951459169388	-0.037624526768922806	0.006528448313474655	0.048153188079595566	0.0373094417154789	-0.026219164952635765	-0.020270658656954765	-0.033507633954286575	-0.049435582011938095	-0.024443794041872025	-0.017617203295230865	0.035362910479307175	-0.013570152223110199	0.009104587137699127	0.0038865432143211365	-0.013776779174804688	0.030485738068819046	-0.016213618218898773	-0.04136824607849121	-0.0453893318772316	0.006541073322296143	-0.003467381000518799	-0.0032001249492168427	0.03215387091040611	0.026713643223047256	-0.002683699131011963	-0.02655017375946045	0.015799473971128464	-0.03675100952386856	-0.02289595641195774	-0.02949925698339939	0.0201515294611454	-0.022065509110689163	0.04803967848420143	-0.024088634178042412	-0.011522877961397171	0.046766605228185654	0.021840963512659073	0.023218978196382523	-0.036998845636844635	-0.000601746141910553	0.03101421520113945	-0.01486438512802124	0.04947230592370033	0.042244259268045425	0.028007958084344864	0.026846658438444138	0.030700985342264175	-0.028643643483519554	0.02235405519604683	-0.03423386812210083	0.044585276395082474	-0.010745368897914886	-0.02013613097369671	0.004807434976100922	-0.03498582914471626	-0.03452587127685547	-0.033474601805210114	-0.00817866250872612	0.01906604692339897	-0.047468364238739014	0.021397899836301804	0.02379249408841133	-0.03372623026371002	-0.024947846308350563	0.044535305351018906	-0.03303947299718857	0.02284829691052437	-0.03464965894818306	0.029908660799264908	-0.03575397655367851	-0.00019698217511177063	0.002507578581571579	-0.016548383980989456	-0.02016681432723999	0.009622015058994293	-0.040741048753261566	0.012583564966917038	-0.0029463283717632294	-0.048267912119627	0.008565735071897507	0.045472826808691025	-0.014153778553009033	0.02935319021344185	-0.039694108068943024	-0.02941042184829712	0.031875621527433395	-0.02525653876364231	0.03272874280810356	0.029652323573827744	-0.015073798596858978	-0.037389256060123444	0.021901492029428482	0.032118115574121475	0.02815193310379982	0.032865751534700394	0.016929518431425095	-0.04662207514047623	0.013954710215330124	0.03954711928963661	0.02068587765097618	-0.04563326761126518	-0.03249330818653107	0.010236430913209915	0.04319608584046364	0.013422634452581406	0.005798459053039551	-0.02559126727283001	0.009083829820156097
jaguars	-0.016364585608243942	0.031205441802740097	-0.04233833774924278	0.022322524338960648	0.02711925283074379	0.01643497869372368	-0.04145890474319458	0.026191089302301407	0.03081602230668068	-0.00773157924413681	0.017620209604501724	0.04022197797894478	-0.018399477005004883	0.014925424009561539	0.024156738072633743	-0.04967010021209717	0.02948734536767006	0.01752406731247902	-0.018765641376376152	-0.0064521655440330505	0.04108455404639244	-0.007986627519130707	0.029571998864412308	-0.04385577514767647	-0.016888834536075592	-0.013505958020687103	-0.0038351044058799744	-0.012857425957918167	0.016777563840150833	0.04891939088702202	-0.0499504916369915	-0.04639569669961929	0.04102231189608574	-0.029402125626802444	0.004232466220855713	-0.022227585315704346	0.019571971148252487	-0.011164210736751556	0.011014007031917572	0.00733647495508194	0.02226083353161812	0.04998078569769859	0.04975510761141777	0.001973271369934082	0.005297757685184479	0.01665741577744484	0.04529685899615288	-0.03723174333572388	-0.044323038309812546	-0.020585108548402786	-0.004733480513095856	-0.01890801265835762	0.03439784422516823	0.015406850725412369	-0.009152352809906006	0.009901784360408783	0.035507235676050186	0.04719586297869682	0.016386378556489944	-0.026815498247742653	-0.006484270095825195	0.0010877139866352081	-0.04927654191851616	0.022691968828439713	0.016908694058656693	0.037083376199007034	0.025883886963129044	0.04791135713458061	-0.02732720412313938	0.021081771701574326	0.030189108103513718	0.03832161799073219	-0.01947735622525215	-0.032349228858947754	0.0369475819170475	-0.046302881091833115	-0.04983452707529068	-0.028384268283843994	-0.048027027398347855	-0.02237337827682495	-0.03298032283782959	-0.0286612156778574	0.008711349219083786	0.044129204005002975	-0.001010846346616745	-0.007697485387325287	0.024414706975221634	-0.0027566328644752502	0.04680079594254494	0.006480265408754349	-0.0340641625225544	-0.0017837882041931152	0.04104231670498848	0.034824419766664505	-0.022957349196076393	-0.04459226131439209	0.02545812353491783	0.010118603706359863	0.0028622373938560486	-0.000698387622833252	0.008509982377290726	-0.0004712715744972229	-0.007887087762355804	-0.049438513815402985	-0.02401156537234783	0.013024676591157913	-0.018498994410037994	0.013502661138772964	-0.0083213672041893	0.016907203942537308	-0.029527639970183372	-0.02375549077987671	0.040315065532922745	0.04110277071595192	-0.032358527183532715	-0.0464937686920166	0.021900568157434464	-0.00924750417470932	0.007335163652896881	-0.008593998849391937	0.04437513276934624	0.03828996792435646	0.03200939670205116	0.038448262959718704	0.03833257034420967	0.02800450101494789	-0.005750536918640137	0.019484784454107285
chiefs	0.027070116251707077	-0.008528627455234528	-0.018409956246614456	3.271177411079407e-05	0.013332214206457138	-0.03393584489822388	-0.0443105474114418	0.025166023522615433	0.04507395252585411	0.03605389967560768	0.005713213235139847	-0.0473407618701458	0.0323144905269146	-0.00866396352648735	-0.03637760877609253	-0.04163005203008652	-0.03800046443939209	-0.02078930102288723	-0.03323882818222046	0.005141306668519974	0.02485734596848488	0.027442242950201035	-0.03791388124227524	0.023578274995088577	0.04224512353539467	0.046788956969976425	-0.006885457783937454	0.008538663387298584	-0.03512287139892578	0.011536933481693268	-0.03884692117571831	-0.02381143532693386	-0.026996208354830742	-0.04993711784482002	-0.027545059099793434	0.020566333085298538	0.011671233922243118	-0.0008956417441368103	0.029770564287900925	0.03172044828534126	-0.012273263186216354	0.04478421434760094	-0.009467758238315582	-0.031204497441649437	-0.03983961418271065	-0.026334822177886963	0.041564736515283585	0.04942796006798744	-0.0470389723777771	-0.005709242075681686	0.02317584678530693	0.005325485020875931	0.009208761155605316	-0.027351761236786842	-0.021000361070036888	0.006842326372861862	0.048627231270074844	0.03770141676068306	0.027628455311059952	-0.007246293127536774	0.043563906103372574	-0.04451356083154678	0.030139971524477005	0.008463002741336823	0.04147462919354439	0.03755621984601021	0.033809710294008255	-0.028780603781342506	0.0027528777718544006	0.024062957614660263	-0.008470725268125534	-0.0008367188274860382	-0.04343312978744507	0.04905916377902031	0.0446603037416935	0.006952308118343353	-0.035708822309970856	-0.04808396100997925	-0.03916215896606445	0.03326607868075371	0.04813941940665245	-0.012329734861850739	0.00615016371011734	-0.03328000381588936	-0.048730313777923584	-0.025891447439789772	-0.009695887565612793	-0.004076160490512848	0.047983672469854355	-0.03948264196515083	-0.04570651054382324	0.01473994180560112	0.049258533865213394	-0.02792220190167427	-0.030847514048218727	0.04113331809639931	-0.03135361522436142	0.04444378986954689	0.04395183548331261	-0.040730070322752	-0.012434959411621094	0.029329095035791397	-0.015206467360258102	0.03304528072476387	0.019301343709230423	-0.015603959560394287	-0.02591550350189209	-0.046733688563108444	0.02950601652264595	-0.019772445783019066	0.01858672872185707	-0.009464837610721588	0.0010834932327270508	-0.005355022847652435	0.024700526148080826	0.04063567891716957	-0.02121843211352825	0.04174404218792915	0.03879718855023384	-0.031818948686122894	0.018146779388189316	-0.014075934886932373	-0.047131478786468506	-0.0283516775816679	0.0005411505699157715	-0.024892223998904228	0.001361299306154251	-0.017068397253751755
chargers	0.14789600670337677	-0.13427142798900604	-0.1362263709306717	0.140956312417984	0.15047703683376312	0.16823777556419373	0.16062340140342712	-0.1347847729921341	0.160667285323143	-0.059883974492549896	-0.12346822768449783	0.13855549693107605	0.15447911620140076	-0.1713951826095581	0.14051376283168793	0.13678637146949768	0.15671254694461823	-0.1197986975312233	-0.15016409754753113	-0.13650564849376678	-0.15480206906795502	-0.16702847182750702	0.16058111190795898	-0.17396917939186096	-0.12374073266983032	0.10486915707588196	-0.14372272789478302	-0.16041189432144165	-0.1062760204076767	-0.12934596836566925	0.13546030223369598	-0.10493158549070358	-0.12343086302280426	-0.11412393301725388	0.16751906275749207	-0.13210619986057281	0.13254615664482117	0.1150224581360817	0.1213667169213295	0.14730095863342285	-0.1382400244474411	0.10791250318288803	0.16938702762126923	0.15526069700717926	-0.14371931552886963	-0.15051884949207306	-0.15679363906383514	-0.1308465451002121	-0.1501384973526001	0.15687298774719238	0.16271090507507324	-0.10611962527036667	0.09682106226682663	-0.13068661093711853	0.16347934305667877	0.12916496396064758	-0.10993171483278275	-0.09758464246988297	0.12851521372795105	-0.16103971004486084	0.11998417228460312	-0.1223445013165474	0.16438192129135132	0.1582108587026596	0.1489172875881195	0.15837602317333221	0.1488664299249649	-0.152798131108284	-0.14303725957870483	0.1276630312204361	-0.16342374682426453	-0.1372026801109314	0.1503414809703827	-0.15731987357139587	0.13026122748851776	-0.12024424225091934	-0.1516847163438797	-0.12402554601430893	-0.1568191945552826	0.12872307002544403	-0.12987792491912842	0.1279190182685852	0.12906713783740997	-0.13085833191871643	-0.15275172889232635	-0.09562844783067703	-0.1248239204287529	0.13138630986213684	-0.15040652453899384	-0.09663820266723633	-0.10156266391277313	-0.15493211150169373	0.11965668946504593	0.15001702308654785	-0.16810527443885803	-0.13461565971374512	0.12807433307170868	0.17454448342323303	0.1710827350616455	0.1528731733560562	0.1402556449174881	0.141641765832901	0.09514058381319046	0.16594628989696503	0.11601681262254715	-0.14789164066314697	0.1653771698474884	-0.15334682166576385	0.13002444803714752	0.13824862241744995	0.14262455701828003	-0.13370352983474731	0.1501879096031189	0.14352037012577057	-0.11416260153055191	0.15005961060523987	0.15315096080303192	-0.16370198130607605	-0.04751564934849739	0.15902665257453918	0.12229008227586746	0.14873038232326508	-0.14541873335838318	0.05825462564826012	0.13301637768745422	-0.15486891567707062	0.13567453622817993	0.001375117339193821
rams	-0.016556035727262497	0.011171329766511917	0.03020063415169716	-0.03455764055252075	0.0420948751270771	-0.01718052476644516	0.026298154145479202	-0.02051788568496704	-0.008903611451387405	-0.03628336265683174	-0.025931430980563164	-0.019170915707945824	-0.03547707945108414	0.03237755224108696	-0.019497906789183617	0.04011351987719536	-0.0030653364956378937	-0.013525653630495071	0.001709379255771637	-0.013704381883144379	0.015685323625802994	-0.004243563860654831	-0.049652088433504105	-0.014494024217128754	0.04530724510550499	-0.020544731989502907	-0.01680384948849678	-0.017469562590122223	0.00894075632095337	-0.007873274385929108	-0.049374379217624664	-0.027235567569732666	-0.049286674708127975	-0.04370391368865967	-0.007231689989566803	0.005832124501466751	0.006301842629909515	0.004693806171417236	0.013338949531316757	0.03182513639330864	0.012714836746454239	0.007983136922121048	-0.04731107875704765	0.013509023934602737	-0.04753664880990982	-0.023440493270754814	-0.012444771826267242	-0.001063324511051178	0.021424856036901474	0.01187298446893692	0.004578698426485062	-0.03045525588095188	0.013391349464654922	0.03378168120980263	-0.02569730393588543	-0.04597240686416626	0.047456804662942886	-0.04421278461813927	-0.005289793014526367	-0.01826263591647148	-0.03722812980413437	-0.006906531751155853	0.03167254105210304	-0.00847914069890976	-0.030530596151947975	-0.008892595767974854	0.023108337074518204	0.004352986812591553	-0.01223980262875557	0.04793807491660118	0.01087282970547676	0.0036407485604286194	0.02437528595328331	-0.048752058297395706	-0.043185412883758545	0.046610716730356216	0.028791848570108414	-0.0010586977005004883	-0.0296845193952322	0.005883932113647461	-0.019148660823702812	0.028983842581510544	0.008758701384067535	-0.045442260801792145	-0.030563652515411377	-0.03540092706680298	-0.033129289746284485	0.04055073484778404	-0.035472262650728226	0.010130036622285843	0.01784408465027809	0.014863792806863785	0.03706297650933266	0.04591171815991402	0.00930028036236763	0.046296391636133194	-0.009738672524690628	-0.03617832809686661	-0.033016204833984375	-0.03833555057644844	-0.03054734505712986	-0.030884886160492897	0.03152456507086754	-0.042074643075466156	0.03545205667614937	0.03848746046423912	0.01756012812256813	0.007414497435092926	0.0019340291619300842	0.018974151462316513	0.012051843106746674	-0.0127556212246418	0.03374287113547325	0.031871821731328964	-0.02302342653274536	-0.03206876665353775	0.006661891937255859	0.016210008412599564	-0.0019327029585838318	-0.027507353574037552	-0.025966359302401543	-0.019597863778471947	-0.04880230501294136	-0.00807272270321846	0.03850288316607475	0.008197344839572906	-0.014585435390472412	0.03711586073040962
dolphins	0.0496995709836483	0.01031344011425972	0.008652828633785248	-0.04713867977261543	0.03921133652329445	-0.04642258957028389	0.03664907440543175	0.010579228401184082	-0.011715613305568695	0.02308538183569908	0.020685624331235886	-0.024036550894379616	-0.006331313401460648	-0.009378325194120407	-0.04413870722055435	0.04164370521903038	-0.037818290293216705	0.0008130297064781189	0.0484454371035099	0.033891234546899796	-0.02095257118344307	-0.009292982518672943	0.01279977336525917	0.029728639870882034	-0.04182480648159981	0.025708746165037155	-0.009230054914951324	0.026739608496427536	-0.02457531727850437	0.021419856697320938	-0.004730165004730225	0.04925098642706871	0.045187342911958694	-0.006901968270540237	-0.03524315357208252	0.0288374163210392	-0.04071616008877754	-0.04585467651486397	0.023111391812562943	0.03577380254864693	0.01980629190802574	0.010930217802524567	-0.011775411665439606	-0.047631848603487015	0.002050362527370453	0.02472604438662529	-0.044129159301519394	0.0006602518260478973	-0.010458491742610931	0.022410038858652115	-0.012225281447172165	-0.04001450538635254	0.00022751092910766602	-0.02749253623187542	-0.014703594148159027	-0.04030961915850639	-0.0286997202783823	0.000931762158870697	-0.03121103160083294	-0.049439024180173874	0.02729633077979088	-0.026257837191224098	0.0019201040267944336	0.03489423915743828	0.04845719411969185	-0.04238375648856163	-0.009769964963197708	0.02936023846268654	-0.003252387046813965	-0.012635327875614166	-0.026246273890137672	-0.008710682392120361	-0.011414039880037308	-0.019538426771759987	0.036741409450769424	-0.0038830526173114777	-0.008819498121738434	-0.0028419867157936096	0.0014205798506736755	-0.025181805714964867	0.04071679338812828	-0.027045607566833496	0.025987152010202408	0.015540484338998795	0.0321584977209568	0.04503058269619942	0.04552382603287697	-0.009682931005954742	-0.03282344341278076	-0.015068840235471725	0.01009894534945488	-0.042633820325136185	-0.03007967583835125	-0.01591627672314644	-0.019265413284301758	-0.003111325204372406	0.03822234645485878	-0.008401036262512207	0.036032307893037796	0.03228068724274635	-0.048668719828128815	0.005368340760469437	0.02123192325234413	0.015919771045446396	-0.03239675611257553	-0.01609666272997856	-0.013651587069034576	0.044188451021909714	0.04125872626900673	-0.010397732257843018	0.00396038219332695	-0.004798959940671921	-0.019822144880890846	-0.03447045013308525	0.01971806213259697	0.011031340807676315	-0.04113421589136124	0.028391961008310318	0.0038775205612182617	-0.014879535883665085	0.034184109419584274	-0.029764307662844658	-0.03184866905212402	0.00860442966222763	-0.003238629549741745	-0.0004368536174297333	-0.043565478175878525	0.0423971451818943
vikings	-0.047136880457401276	-0.007387887686491013	0.020033489912748337	0.02371218428015709	-0.04356196150183678	0.03301309421658516	0.043134916573762894	-0.02600458823144436	-0.02858717553317547	-0.02979954518377781	-0.002746380865573883	0.016055773943662643	-0.029622508212924004	0.0009523145854473114	-0.049137379974126816	0.021656785160303116	-0.02938215807080269	0.011738061904907227	0.0382111556828022	-0.006502162665128708	0.039682868868112564	-0.002551533281803131	0.04614918306469917	0.012292943894863129	0.010132469236850739	0.03996685519814491	-0.04124893993139267	-0.007947385311126709	-0.01915156841278076	-0.004308115690946579	-0.022020136937499046	0.037990752607584	-0.045001544058322906	0.007555805146694183	-0.03723837062716484	0.04027906432747841	0.012600410729646683	0.004639245569705963	0.039024773985147476	-0.032085537910461426	0.024145495146512985	-0.02101839892566204	-0.015374720096588135	0.0473722480237484	0.01566993072628975	0.009759724140167236	-0.04261789470911026	-0.0009541511535644531	0.045535650104284286	-0.03799682855606079	-0.012633264064788818	0.013662900775671005	0.011514056473970413	0.005291808396577835	0.03032907471060753	-0.005465816706418991	-0.009945224970579147	0.029260363429784775	0.017939399927854538	0.010623574256896973	-0.03133143484592438	-0.03330220282077789	-0.046721767634153366	-0.006018985062837601	-0.015213977545499802	-0.04865527153015137	-0.049653779715299606	0.048513319343328476	-0.00857456773519516	-0.01843024417757988	-0.016098927706480026	0.014163482934236526	0.020688045769929886	0.024183515459299088	0.02265704795718193	0.007006429135799408	-0.037396859377622604	-0.029842330142855644	-0.011489342898130417	-0.013306520879268646	-0.019383156672120094	-0.02895416133105755	-0.03575829416513443	-0.01533370092511177	0.0066435933113098145	-0.01769460365176201	-0.012854646891355515	0.04811486974358559	-0.01695772260427475	-0.007718466222286224	-0.016834773123264313	0.027273688465356827	-0.013941287994384766	0.03810249641537666	0.02813810482621193	-0.016221273690462112	-0.04820624738931656	0.014367450028657913	0.010106123983860016	-0.030323326587677002	-0.022953450679779053	-0.038710854947566986	0.014342833310365677	-0.016269229352474213	0.040384773164987564	-0.01623457670211792	-0.03656276315450668	-0.043780386447906494	-0.013338018208742142	0.02368577942252159	0.039291415363550186	0.006439484655857086	-0.033354245126247406	-0.008354701101779938	-0.03660433366894722	-0.026366984471678734	-0.021777940914034843	-0.009591054171323776	-0.02731996774673462	0.03257138654589653	0.047937024384737015	0.01141441985964775	-0.02239389531314373	-0.022047901526093483	0.03719593212008476	-0.01839534193277359	0.04037297144532204	0.01529226079583168
patriots	0.009602904319763184	-0.007869839668273926	0.005317974835634232	-0.006555341184139252	-0.014241516590118408	0.028767753392457962	0.0008996501564979553	0.040530528873205185	0.03464508429169655	0.013242904096841812	0.03138989582657814	0.01021425798535347	0.029948342591524124	-0.0134664885699749	-0.046323180198669434	-0.014508534222841263	0.03915149345993996	-0.0009130612015724182	-0.025219058617949486	0.008995689451694489	-0.02766580693423748	-0.04506278038024902	0.005323387682437897	-0.028387844562530518	-0.007647205144166946	0.025547314435243607	-0.020920097827911377	0.03401510789990425	-0.018635869026184082	0.012089230120182037	0.0005720481276512146	0.005069278180599213	-0.019994497299194336	-0.0017499551177024841	0.02091527357697487	-0.007989980280399323	-0.029335511848330498	-0.012583982199430466	0.028932679444551468	0.013949822634458542	-0.011314164847135544	0.0032598599791526794	0.007425546646118164	0.0225888229906559	-0.033040035516023636	0.024079229682683945	0.031047213822603226	-0.030660713091492653	0.021764706820249557	0.03105844184756279	-0.011900771409273148	0.02023961767554283	-0.015669547021389008	0.04346075281500816	0.035790253430604935	0.03970816358923912	0.0007295124232769012	0.029371168464422226	0.0357745923101902	-0.04559614881873131	-0.01123826578259468	-0.022492527961730957	-0.018580924719572067	-0.0442432165145874	-0.02467672899365425	0.004118155688047409	-0.03753106668591499	-0.03636302798986435	-0.04408160597085953	0.04254871979355812	0.030743923038244247	-0.006797779351472855	0.031039845198392868	0.005374778062105179	-0.044509150087833405	0.04420356824994087	-0.04385790973901749	-0.04552469402551651	0.03120279684662819	-0.026071012020111084	-0.006235349923372269	0.03385671600699425	-0.017748616635799408	-0.012771449983119965	-0.04385671764612198	0.026484835892915726	0.029352787882089615	-0.016054462641477585	0.03491194173693657	-0.03706137090921402	-0.00390021875500679	0.044808316975831985	0.018574167042970657	-0.048880208283662796	-0.041961025446653366	-0.007539369165897369	-0.028437519446015358	0.001273714005947113	-0.017448008060455322	-0.043173111975193024	0.04203857108950615	-0.020564962178468704	-0.03370028734207153	-0.0476798415184021	0.025687765330076218	0.003109227865934372	-0.01524127647280693	-0.002756677567958832	-0.020235968753695488	-0.0331680066883564	-0.04995671659708023	0.02689720317721367	0.04790215566754341	-0.02256913296878338	0.029799606651067734	-0.010725487023591995	-0.011938072741031647	0.02006615325808525	-0.03569527715444565	-0.023556603118777275	0.009561706334352493	-0.0208114143460989	0.041585419327020645	0.014860261231660843	0.011387217789888382	0.049881402403116226	0.01818908378481865	0.03965313360095024
saints	-0.04185886308550835	-0.026747167110443115	0.018343519419431686	-0.035654984414577484	0.01807441934943199	-0.007319353520870209	-0.005560647696256638	-0.037066422402858734	0.022781524807214737	-0.003611147403717041	-0.010698355734348297	0.02958717569708824	-0.021615028381347656	0.0284859798848629	-0.008651744574308395	0.03485159948468208	0.03550658002495766	-0.030511975288391113	0.01942417398095131	-0.027892841026186943	-0.0365455262362957	-0.023101532831788063	0.03382423147559166	0.04291797801852226	0.04101962968707085	-0.02770252339541912	-0.04187614843249321	-0.04631035402417183	-0.02429785765707493	0.04320242628455162	-0.01875556819140911	0.03344476595520973	0.02255317196249962	0.0032622329890727997	0.023308422416448593	0.04781992360949516	0.022952783852815628	-0.03774221986532211	0.02439894899725914	0.010991953313350677	0.01812107488512993	-0.01144411414861679	0.03164476528763771	-0.003215886652469635	0.0366678349673748	-0.03891563415527344	0.03701254352927208	0.024752389639616013	0.04979623481631279	-0.033342838287353516	0.029893603175878525	0.037260327488183975	0.01970929279923439	-0.008879207074642181	0.04119807854294777	0.02612396702170372	0.04423991218209267	0.007814634591341019	-0.005040179938077927	0.0019058212637901306	-0.012885164469480515	0.002664756029844284	0.013153400272130966	0.003435324877500534	-0.03191337734460831	-0.04557310417294502	-0.043822575360536575	0.042149756103754044	-0.02105311118066311	0.013379823416471481	-0.02335282601416111	0.01679316535592079	0.00926760584115982	-0.04755791649222374	0.03912759944796562	-0.007956244051456451	-0.026945019140839577	0.01529652252793312	-0.03680860996246338	-0.021932804957032204	-0.011413954198360443	-0.0023375265300273895	-0.02610046975314617	-0.012509096413850784	0.026766669005155563	-0.002339731901884079	0.03949432447552681	-0.012255169451236725	-0.016966797411441803	-0.041598666459321976	0.012204837054014206	0.025703441351652145	-0.02284478023648262	0.0041217803955078125	0.005897723138332367	0.040561821311712265	0.03083333745598793	0.010336674749851227	-0.012674737721681595	0.028963830322027206	0.03759780153632164	-0.00564410537481308	-0.023368680849671364	0.043901387602090836	-0.04840968921780586	-0.047496676445007324	-0.030654622241854668	-0.005175519734621048	-0.03847252205014229	0.04172435775399208	-0.00823521614074707	-0.000461578369140625	-0.04535560682415962	0.02349846437573433	0.04219341650605202	-0.03147610276937485	0.046127740293741226	-0.010699201375246048	0.0034534335136413574	0.004862964153289795	-0.029708921909332275	-0.029949558898806572	-0.03482484817504883	0.01948506012558937	0.006915222853422165	0.03175020590424538	-0.04248303174972534	-0.03349301964044571
giants	-0.010908413678407669	-0.02005673758685589	0.018305566161870956	-0.00821613147854805	0.03656454011797905	0.013696160167455673	0.01998693123459816	0.015176486223936081	-0.0033343322575092316	0.029561389237642288	0.015463028103113174	0.04339217022061348	-0.02213350497186184	-0.03506436198949814	-0.01277989149093628	0.020731952041387558	-0.005111087113618851	-0.017963837832212448	-0.02956932783126831	-0.012214232236146927	-0.013865064829587936	-0.024389494210481644	0.003956019878387451	-0.019368886947631836	0.02336813136935234	-0.018975460901856422	0.02761967107653618	-0.017473768442869186	-0.021035386249423027	-0.032221078872680664	0.036347899585962296	0.0065299756824970245	-0.039816759526729584	-0.03581317514181137	0.022075366228818893	0.015070047229528427	0.006363976746797562	0.03866176679730415	-0.032906316220760345	0.0014216899871826172	0.012437842786312103	-0.04707542806863785	0.00894712284207344	-0.03750108554959297	0.03135618939995766	-0.025735855102539062	0.04046202078461647	0.001664958894252777	0.006091035902500153	-0.0014684312045574188	0.007549632340669632	-0.004406355321407318	-0.03974141925573349	0.014362301677465439	0.0003015287220478058	0.01351625844836235	-0.008662749081850052	0.015557888895273209	0.0008981712162494659	0.04520818963646889	0.04152888432145119	-0.030372893437743187	0.0016502253711223602	0.03081304207444191	0.04820149019360542	-0.028978897258639336	-0.0001880154013633728	-0.032945144921541214	-0.018862009048461914	0.0036312341690063477	0.00035817548632621765	0.03369574621319771	-0.014803387224674225	-0.04015761613845825	0.04130392149090767	-0.036048032343387604	0.013020399957895279	0.02675347402691841	0.00022263452410697937	-0.02834932878613472	-0.040821708738803864	-0.020820533856749535	0.012046515941619873	0.04746527597308159	-0.03934072330594063	0.025134656578302383	-0.00490327924489975	0.04619765654206276	0.011881660670042038	-0.03236396610736847	0.006672084331512451	-0.00029616430401802063	-0.0017543807625770569	0.023978304117918015	0.006685376167297363	0.014407705515623093	0.007275007665157318	0.03744279220700264	-0.02124345302581787	0.048441771417856216	-0.005664825439453125	-0.045783210545778275	0.008262086659669876	0.01839498057961464	0.025110390037298203	0.03983214870095253	-0.034832894802093506	-0.0282722357660532	-0.01739860698580742	0.023184265941381454	0.04939020797610283	-0.015045415610074997	-0.04122290760278702	-0.02911059930920601	-0.026032520458102226	0.043769750744104385	0.01948375627398491	-0.028980910778045654	-0.021945906803011894	-0.031950972974300385	0.035453926771879196	-0.009864043444395065	0.02820490673184395	0.013358060270547867	0.0322689525783062	-0.04766828939318657	0.025326136499643326	-0.005028128623962402
jets	0.0366569422185421	0.022399436682462692	0.026672255247831345	-0.0022840872406959534	0.006743192672729492	0.013960707932710648	0.005330312997102737	0.03645772114396095	0.03226685896515846	-0.04092838615179062	-0.03729208558797836	0.04938102886080742	-0.04082658141851425	0.01766139641404152	-0.009866513311862946	0.04704340919852257	0.02645634487271309	0.04036053642630577	-0.01192542165517807	-0.008662261068820953	0.04290449991822243	0.012455366551876068	-0.01898881234228611	0.009318672120571136	0.04246792569756508	-0.027356421574950218	-0.020653117448091507	-0.03239278867840767	0.007813356816768646	0.013157431036233902	-0.015859555453062057	0.04863417521119118	0.025809396058321	0.033147696405649185	-0.0007586479187011719	0.023585524410009384	-0.013908445835113525	-0.017585135996341705	-0.010563813149929047	0.005164407193660736	0.012199796736240387	-0.028936564922332764	0.0440153144299984	-0.02615840546786785	0.0429861806333065	-0.043389152735471725	-0.031611133366823196	-0.01714632660150528	0.03514207527041435	0.03269939497113228	-0.011510767042636871	-0.013900350779294968	-0.01973280869424343	0.0018461719155311584	0.04517599567770958	0.01045449823141098	0.017317865043878555	0.0405094139277935	-0.013772141188383102	-0.0023547299206256866	-0.049492575228214264	0.021361757069826126	-0.005405176430940628	-0.005722355097532272	-0.01136021688580513	0.012826289981603622	-0.021623194217681885	-0.047087013721466064	0.0061714425683021545	-0.00624016672372818	0.03419147804379463	-0.01080343872308731	-0.04295363649725914	-0.04624686390161514	0.047692541033029556	0.03572665527462959	-0.020800471305847168	0.020566556602716446	0.04475269094109535	-0.0035431981086730957	-0.04692275449633598	0.039537396281957626	0.03172710910439491	0.031200114637613297	0.034448910504579544	-0.02219979837536812	0.001265108585357666	-0.007100213319063187	-0.00936673954129219	0.049002233892679214	0.01869117096066475	-0.005839001387357712	0.000246930867433548	0.030844595283269882	0.03371034935116768	-0.0046180374920368195	-0.03973374515771866	0.00257868692278862	0.016534116119146347	-0.04435119777917862	-0.013932596892118454	-0.016811858862638474	-0.025447238236665726	-0.04362694174051285	-0.0263933427631855	-0.02137746848165989	0.049217309802770615	-0.0017218217253684998	0.02026737853884697	-0.009615588933229446	-0.025658929720520973	0.0245414637029171	-0.029797209426760674	0.01220635324716568	-0.0005317702889442444	-0.049807000905275345	0.03700869157910347	-0.026804495602846146	0.013486113399267197	-0.013239443302154541	0.01113898679614067	0.030509982258081436	0.03737301006913185	-0.01212386041879654	-0.0008210167288780212	-0.023395145311951637	-0.030728328973054886	0.03820022568106651
raiders	0.04961434379220009	-0.022912371903657913	-0.017170965671539307	-0.018934691324830055	-0.04353513941168785	0.027746643871068954	-0.0261564739048481	-0.021767163649201393	-0.020073652267456055	0.04423129931092262	-0.04872521385550499	-0.02724982611835003	-0.013939011842012405	0.0001424066722393036	0.013890635222196579	-0.0021863356232643127	-0.04023771360516548	0.0010742060840129852	-0.0034583918750286102	-0.009397316724061966	-0.004272866994142532	0.031620535999536514	-0.018642056733369827	-0.02591153420507908	0.020793389528989792	-0.020460857078433037	-0.02178373374044895	0.021584365516901016	-0.003602348268032074	-0.014856897294521332	-0.044463612139225006	0.048631396144628525	-0.029656125232577324	0.005759797990322113	0.03994976356625557	-0.04784609004855156	0.01273515447974205	-0.04918036609888077	0.02088780328631401	0.0070809610188007355	-0.0046918392181396484	-0.01177440956234932	-0.029490292072296143	-0.01943357102572918	0.04041712358593941	-0.0311620831489563	-0.012493990361690521	0.0199897401034832	0.018565606325864792	-0.008375715464353561	-0.031157387420535088	0.04136646166443825	-0.04727988317608833	0.009059261530637741	0.017026927322149277	0.01348746195435524	0.04362280294299126	-0.005054272711277008	0.011848829686641693	-0.029524827376008034	-0.027256358414888382	-0.028948485851287842	-0.036042094230651855	-0.006900332868099213	-0.03221910074353218	-0.027820516377687454	0.006046272814273834	-0.03432098776102066	-0.025274861603975296	-0.04699886962771416	0.0462338961660862	-0.017521120607852936	0.022580016404390335	0.031126011162996292	-0.01828279346227646	0.026929620653390884	-0.011342823505401611	-0.048090219497680664	-0.005576588213443756	0.010250139981508255	-0.016836702823638916	0.04300098493695259	-0.04296574741601944	0.04492569342255592	-0.026477981358766556	0.016877803951501846	-0.01623394340276718	-0.01367945596575737	-0.037268899381160736	-0.0063270218670368195	0.03940770402550697	-0.002701032906770706	0.0108712799847126	0.005573201924562454	-0.014503728598356247	0.009626589715480804	0.03982268646359444	-0.0006449930369853973	-0.021612966433167458	0.038693416863679886	-0.0469699501991272	0.014563236385583878	0.00747593492269516	0.02766423299908638	-0.027003049850463867	-0.017957963049411774	-0.018523752689361572	0.026976216584444046	-0.00779125839471817	0.020749572664499283	-0.03374979645013809	0.046094607561826706	0.011946678161621094	-0.0044476985931396484	0.03110731765627861	-0.008443843573331833	-0.045394230633974075	0.036213669925928116	-0.04378786310553551	0.007909346371889114	-0.03239089250564575	0.014438275247812271	-0.009079158306121826	0.04685187712311745	-0.046030592173337936	-0.04734398052096367	-0.046592917293310165	0.021824706345796585
eagles	0.007306776940822601	0.0452188141644001	-0.016618620604276657	-0.0034820064902305603	0.03267849609255791	-0.012971937656402588	-0.016393888741731644	-0.03812263160943985	0.010441184043884277	0.020553920418024063	-0.023213470354676247	0.020424041897058487	6.324052810668945e-05	-0.01583562046289444	0.04958028718829155	-0.002787947654724121	-0.007808029651641846	-0.04182557016611099	0.007352292537689209	0.047396156936883926	-0.0015591010451316833	0.03056861087679863	0.049826715141534805	0.002714894711971283	-0.03427703678607941	0.021165046840906143	-0.010479234158992767	0.04409649595618248	0.027806926518678665	-0.003360651433467865	-0.040548551827669144	-0.0035940520465373993	0.016921628266572952	0.004504300653934479	-0.0005888119339942932	0.03640320524573326	-0.03938077762722969	0.038707997649908066	-0.04953215271234512	-0.046309780329465866	0.03070923313498497	-0.045407045632600784	0.00535980612039566	0.023803267627954483	-0.0015327446162700653	-0.010029695928096771	0.004195619374513626	-0.02884012460708618	0.004410184919834137	0.01242675632238388	-0.012920700013637543	-0.030977463349699974	0.021798420697450638	0.0336628295481205	-0.03472946956753731	-0.02552647702395916	-0.01592344045639038	-0.025820910930633545	-0.03622448444366455	-0.033921919763088226	0.01664353534579277	0.015966463834047318	-0.03993569687008858	-0.02041180245578289	0.029430534690618515	-0.018168963491916656	0.043406639248132706	0.04588818922638893	0.026308272033929825	-0.012812338769435883	0.04133125767111778	0.011671744287014008	0.03591029718518257	0.007455218583345413	-0.019651854410767555	0.040942203253507614	0.023558150976896286	0.034049224108457565	-0.044730402529239655	-0.0006465092301368713	-0.030708348378539085	0.03175082430243492	-0.0016210079193115234	0.049363624304533005	-0.03285689651966095	0.04856797680258751	-0.01775873824954033	0.0496685765683651	-0.041611313819885254	0.03551477566361427	-0.01934903860092163	-0.024788999930024147	0.004122637212276459	-0.00821465253829956	-0.004894651472568512	0.02511732652783394	0.028877105563879013	0.04169804975390434	-0.047930505126714706	-0.010313965380191803	-0.0012600533664226532	-0.015974022448062897	-0.021930014714598656	0.019533421844244003	0.03400219604372978	-0.04532429203391075	-0.02883319929242134	-0.003326594829559326	-0.04740304872393608	-0.0309379231184721	0.03469288721680641	0.04152900353074074	-0.009746469557285309	-0.039601124823093414	-0.008937858045101166	0.01617405191063881	-0.010864295065402985	-0.00908585637807846	0.0015937797725200653	-0.029571283608675003	-0.04373842477798462	-0.03212602436542511	-0.010321151465177536	-0.04350005462765694	0.038081858307123184	-0.034751344472169876	-0.026710355654358864	0.021852079778909683
steelers	-0.04192369058728218	0.0267544724047184	0.02630874142050743	-0.01344679668545723	-0.014256108552217484	-0.01898200623691082	0.030693087726831436	0.0048073045909404755	-0.026299452409148216	-0.04183640331029892	0.020263340324163437	-0.04414334520697594	-0.03972344473004341	-0.04393630102276802	-0.021957600489258766	-0.04785039648413658	-0.04628891870379448	-0.02961975336074829	-0.040891289710998535	-0.027885889634490013	-0.017176173627376556	0.0323585607111454	-0.021870959550142288	-0.0165240541100502	-0.012161098420619965	0.009065747261047363	-0.006903517991304398	0.019425544887781143	-0.04011265188455582	0.014273051172494888	-0.03295654058456421	-0.005824029445648193	-0.012080144137144089	-0.04053105041384697	0.014668669551610947	0.027255211025476456	0.003739200532436371	-0.046920716762542725	-0.00442129373550415	-0.02665628306567669	-0.028145087882876396	0.0262368805706501	0.030576635152101517	0.024334263056516647	0.030868258327245712	-0.007173098623752594	-0.03490940481424332	-0.03386014699935913	0.010873664170503616	0.024737562984228134	0.029177431017160416	-0.015034209936857224	0.016179833561182022	0.027191389352083206	-0.0049047693610191345	-0.019642306491732597	-0.02237945795059204	-0.03658865764737129	0.025691557675600052	-0.018230844289064407	-0.021359026432037354	-0.013309158384799957	-0.049742210656404495	0.04289822652935982	-0.004531871527433395	0.03396177664399147	0.031223203986883163	0.0032155513763427734	-0.00031491369009017944	0.02532247081398964	0.0176704041659832	0.024853099137544632	-0.009267400950193405	0.012810144573450089	-0.037101686000823975	-0.022455036640167236	0.026434633880853653	0.009575176984071732	-0.04485798999667168	0.034810278564691544	0.01025237888097763	0.005769301205873489	-0.04127563163638115	0.007344592362642288	0.00495447963476181	0.03427097573876381	0.04749127849936485	-0.01968487538397312	-0.03271768242120743	0.010484587401151657	0.006524372845888138	-0.007570076733827591	-0.03476430103182793	0.02865436300635338	-0.024811601266264915	0.049383487552404404	0.04295475408434868	0.025301050394773483	-0.04691107198596001	-0.006508421152830124	0.00030367448925971985	-0.0005403272807598114	-0.010302793234586716	0.024977710098028183	0.022792641073465347	-0.04312858730554581	-0.04868611320853233	-0.032591916620731354	0.03703341260552406	-0.030667198821902275	-0.022763049229979515	0.03348520025610924	0.042559269815683365	0.04938105121254921	0.03401327505707741	-0.03777914121747017	-0.01369405910372734	-0.04433373361825943	0.007096350193023682	-0.024880170822143555	0.007172584533691406	-0.0376335009932518	0.0413968600332737	-0.01870415359735489	-0.03825784847140312	0.0025187134742736816	0.0271843783557415	-0.00865616649389267
49ers	-0.04470323398709297	0.029782656580209732	-0.024599885568022728	-0.04268155246973038	-0.005440808832645416	-0.03382796049118042	0.044733334332704544	0.011575497686862946	0.026099588721990585	-0.041247546672821045	0.010412953794002533	0.032351043075323105	-0.015681792050600052	-0.0167754665017128	-0.016028501093387604	-0.009987842291593552	-0.006092928349971771	-0.033771395683288574	0.03077634796500206	-0.01728156954050064	-0.046364881098270416	-0.004179991781711578	0.011369895190000534	-0.04539802297949791	0.017265204340219498	-0.03750964254140854	0.03817671909928322	-0.03617415577173233	0.008795786648988724	0.011219095438718796	-0.016783438622951508	0.015120279043912888	-0.0023776181042194366	-0.006609879434108734	0.039596881717443466	-0.021721208468079567	-0.01917893998324871	0.04537408426403999	0.009122334420681	-0.024149227887392044	-0.01297595351934433	0.0385897196829319	-0.019171809777617455	-0.005677603185176849	0.034352365881204605	-0.03601003810763359	0.037717949599027634	0.00030519813299179077	-0.03074096515774727	0.04768167808651924	-0.039133764803409576	-0.04531431198120117	0.004511009901762009	-0.0031437501311302185	0.0271768681704998	0.009313024580478668	-0.024119794368743896	0.04938388988375664	-0.013257347047328949	0.02640805020928383	-0.006922222673892975	-0.041657544672489166	-0.0036125779151916504	-0.02419658936560154	-0.01771613210439682	-0.04698969051241875	0.03635399416089058	0.02014494314789772	0.025930773466825485	0.029123369604349136	-0.009922444820404053	0.0454094298183918	-0.0008476153016090393	-0.0137869231402874	0.0019416101276874542	0.037281084805727005	0.040408920496702194	0.013067010790109634	0.015717577189207077	-0.002173222601413727	-0.043427396565675735	0.03532656654715538	-0.011176835745573044	-0.03997340053319931	-0.020849216729402542	0.038512181490659714	0.04485848918557167	0.04464573785662651	0.03628332540392876	0.04826498404145241	0.029220011085271835	0.0005040541291236877	-0.041110433638095856	-0.030182434245944023	0.026715848594903946	-0.018894458189606667	0.004673421382904053	0.028925467282533646	-0.025982070714235306	-0.033897899091243744	0.023750338703393936	-0.02789144590497017	0.02661316469311714	0.006418753415346146	0.03057948127388954	0.02372751012444496	-0.0050859227776527405	-0.02019733190536499	-0.01100904867053032	0.04916485771536827	0.02863314375281334	-0.016562186181545258	0.0028408393263816833	0.0248112715780735	0.024598505347967148	-0.018753135576844215	0.02560385689139366	-0.022603774443268776	0.026266109198331833	0.031941305845975876	0.024569619446992874	0.011499784886837006	0.03592952713370323	-0.005816388875246048	-0.017941616475582123	-0.010976660996675491	0.03028731420636177	-0.03508859872817993
seahawks	0.024116862565279007	0.02375579997897148	0.04563087597489357	0.04977245256304741	-0.01620011404156685	-0.02029198408126831	-0.011132694780826569	-0.04652360826730728	-0.0007189139723777771	-0.04461550712585449	-0.030466532334685326	0.04882204905152321	0.031212057918310165	0.033692147582769394	0.020047102123498917	0.0383061058819294	0.0055166371166706085	-0.03434203937649727	-0.04464545473456383	0.008908510208129883	-0.02443861961364746	0.025056276470422745	-0.02935859002172947	0.0374612919986248	-0.01175931841135025	-0.033599674701690674	0.04912927374243736	-0.039228715002536774	-0.020545542240142822	0.005493570119142532	0.007761359214782715	0.04353548213839531	-0.043110668659210205	-0.03420060873031616	-0.04556378349661827	-0.0008669272065162659	-0.02567319944500923	-0.004845667630434036	0.04996166005730629	-0.04260728508234024	-0.003017853945493698	-0.035385023802518845	0.023441065102815628	0.034679148346185684	-0.020431721583008766	-0.00401141494512558	-0.031290341168642044	0.004704594612121582	0.031052302569150925	0.02691734954714775	-0.006542108952999115	0.004539035260677338	-0.007247854024171829	0.03384442254900932	-0.029696298763155937	-0.009692907333374023	0.013538230210542679	0.03473745658993721	-0.03676595538854599	0.03381221368908882	0.0485462062060833	-0.0176360122859478	0.00020551681518554688	0.011064328253269196	0.008835315704345703	0.026509393006563187	-0.023678911849856377	-0.00404207780957222	0.04664018377661705	0.044330012053251266	0.03829306736588478	0.015489164739847183	0.04282946512103081	-0.02220679633319378	0.01510385051369667	-0.003757096827030182	-0.029419898986816406	-0.015981078147888184	-0.04136582463979721	-0.04383036121726036	0.02535093203186989	0.019695911556482315	0.029431317001581192	5.804002285003662e-06	0.03844777122139931	0.046212080866098404	-0.019915390759706497	-0.024717915803194046	-0.04488520696759224	-0.003017522394657135	-0.026166988536715508	0.03784715011715889	-0.031971871852874756	0.013990942388772964	-0.0031413212418556213	0.0466972254216671	0.019730541855096817	-0.04573465511202812	-0.018056880682706833	-0.03043435886502266	-0.02393871545791626	-0.037237681448459625	0.04360656812787056	-0.013813603669404984	-0.03152427822351456	0.028114352375268936	-0.039317868649959564	0.03806391730904579	-0.035922132432460785	-0.020203936845064163	-0.04903619363903999	-0.027256572619080544	-0.007194995880126953	0.028111424297094345	0.03251570835709572	-0.018693946301937103	0.03456849232316017	0.03313858434557915	-0.029209518805146217	-0.018950272351503372	0.017810378223657608	0.04413825646042824	0.04733946546912193	-0.03981896489858627	0.04453657940030098	0.035730306059122086	-0.009172607213258743	0.024817179888486862
buccaneers	0.03152402862906456	-0.04333888366818428	-0.024454141035676003	0.04579481855034828	0.03963029757142067	-0.046076156198978424	-0.014776825904846191	-0.04988119751214981	0.0053347572684288025	0.03261060640215874	-0.04378579929471016	0.010868847370147705	-0.012090791016817093	-0.04132863134145737	-0.035754989832639694	0.04771563783288002	0.024635981768369675	-0.04281755909323692	-0.004895783960819244	-0.033387839794158936	-0.006950639188289642	0.04514074698090553	0.020171944051980972	0.007155954837799072	-0.005469165742397308	-0.009037662297487259	0.023301925510168076	0.0009313449263572693	0.032651495188474655	0.006204105913639069	-0.02630225382745266	0.03195234760642052	-0.010581709444522858	0.007700752466917038	0.009653378278017044	0.0017147772014141083	-0.008463121950626373	-0.028803503140807152	-0.04240015894174576	0.011053908616304398	0.028058353811502457	-0.036336518824100494	-0.004715036600828171	0.033868733793497086	0.017761502414941788	-0.041508398950099945	0.021262500435113907	-0.01807473972439766	0.002583492547273636	0.04254427179694176	-0.01509847491979599	-0.01735740900039673	0.03488309308886528	0.03198732063174248	-0.04666755348443985	0.048538874834775925	0.006553627550601959	-0.005298316478729248	0.008447907865047455	0.020773593336343765	0.012058306485414505	-0.004972994327545166	0.04739492014050484	-0.004027664661407471	-0.036466799676418304	0.03548706695437431	0.024103987962007523	-0.047244228422641754	0.0014272220432758331	0.046862851828336716	0.03939621523022652	-1.5236437320709229e-05	0.011967979371547699	0.01532045379281044	-0.011681724339723587	0.02074301615357399	0.030537690967321396	0.005417264997959137	0.04102553054690361	0.031748805195093155	0.028184641152620316	-0.021372605115175247	0.04119547829031944	0.019109096378087997	0.03945782408118248	0.025505807250738144	0.03708130493760109	-0.04636584594845772	-0.03562222793698311	0.03927140310406685	0.0338035486638546	-0.03960161283612251	0.006651245057582855	-0.018680740147829056	-0.016871988773345947	-0.016803644597530365	0.014726433902978897	0.015513885766267776	-0.031598761677742004	0.042797934263944626	0.03315119817852974	-0.027473974972963333	0.011797569692134857	0.034175921231508255	-0.021223092451691628	0.013528477400541306	-0.0417301170527935	-0.02310936525464058	0.01846935972571373	0.037907544523477554	0.02232799306511879	-0.020336449146270752	-0.023939764127135277	0.018542658537626266	0.023565877228975296	0.00594184547662735	0.0168190635740757	-0.01711360365152359	0.009927250444889069	-0.013662971556186676	0.025711540132761	0.01639629527926445	-0.007918048650026321	-0.016543280333280563	-0.014239907264709473	0.039324138313531876	-0.04525277763605118	-0.018765246495604515
titans	-0.016340624541044235	-0.0289984829723835	0.023083869367837906	-0.04936645179986954	0.027735378593206406	0.04195885732769966	-0.02513979747891426	0.01489255204796791	0.0474989078938961	-0.026451969519257545	-0.023770559579133987	0.034493040293455124	-0.03014603815972805	-0.0020704641938209534	0.03272601589560509	-0.04018678516149521	0.012289680540561676	0.03833223506808281	-0.03780808299779892	-0.032457366585731506	0.02452841028571129	-0.007781602442264557	0.016994204372167587	0.008215628564357758	-0.034221962094306946	0.0006113871932029724	0.0252983458340168	-0.04969757795333862	0.029820669442415237	0.04791310802102089	0.0005593188107013702	0.009755454957485199	0.027785327285528183	-0.005699623376131058	0.02016497030854225	-0.03311570733785629	-0.02436310052871704	0.007643423974514008	0.02766779437661171	0.006350494921207428	0.01122976467013359	0.033972445875406265	-0.00239640474319458	-0.012274585664272308	-0.005706500262022018	0.01963789388537407	-0.023321224376559258	0.01577523723244667	-0.03344240039587021	-0.0366869792342186	0.016276609152555466	0.005248568952083588	0.03353269025683403	0.010512389242649078	-0.0009774081408977509	-0.0153876431286335	0.04181941971182823	0.03721903637051582	0.003477800637483597	-0.012254763394594193	-0.047605063766241074	0.0028242841362953186	0.00925125926733017	0.04918116703629494	-0.04216408729553223	0.022082123905420303	0.02107277140021324	-0.04570115730166435	0.02926454320549965	-0.045080363750457764	0.025463450700044632	-0.013350915163755417	-0.001711774617433548	-0.008368384093046188	-0.02980070188641548	-0.027972185984253883	0.04921915754675865	-0.03446439653635025	-0.018057189881801605	-0.016616512089967728	-0.0010763779282569885	-0.017249811440706253	0.027991440147161484	0.047911856323480606	0.03751847520470619	0.02229924127459526	-0.0085005983710289	-0.01108231395483017	0.02081754431128502	-0.024962568655610085	0.0016583092510700226	0.0035778284072875977	0.012715410441160202	0.027855370193719864	-0.013995848596096039	0.015016529709100723	0.008278202265501022	0.001931212842464447	-0.0204126238822937	-0.013070393353700638	-0.0086180679500103	-0.03866034746170044	-0.023612236604094505	0.01164623349905014	-0.010305427014827728	-0.032566964626312256	-0.025305891409516335	-0.02325425110757351	0.007176242768764496	0.006747376173734665	-0.027835560962557793	-0.04167134687304497	-0.0036183372139930725	0.02464829757809639	-0.021393025293946266	0.0059019215404987335	0.010615788400173187	-0.03405766561627388	0.02655322477221489	-0.022696996107697487	-0.0073568932712078094	0.012612435966730118	0.046286072582006454	-0.00723034143447876	0.038334835320711136	0.03007901832461357	-0.03396373987197876	0.010871529579162598
commanders	-0.0015124306082725525	0.048158351331949234	-0.040489234030246735	0.00302736833691597	-0.01092527061700821	0.04182017967104912	0.02969883754849434	-0.023647570982575417	0.013289634138345718	0.02247956022620201	-0.02082235924899578	0.024968158453702927	0.01625046506524086	-0.0020761005580425262	0.008954476565122604	0.030220065265893936	0.006897736340761185	0.04953355714678764	0.04538622871041298	-0.01697021722793579	0.011548973619937897	0.001039661467075348	0.02078196033835411	-0.014673840254545212	0.04869324341416359	-0.04057030752301216	0.02320742979645729	0.007141280919313431	-0.02223893441259861	0.012303389608860016	-0.02900041453540325	0.009157754480838776	0.014900032430887222	0.026278343051671982	-0.0075903646647930145	-0.018686436116695404	-0.022511864081025124	-0.049552321434020996	-0.03803311660885811	0.03583968058228493	0.035529617220163345	-0.014706123620271683	0.03897911682724953	0.03544170781970024	0.020572330802679062	0.049127448350191116	0.038282085210084915	-0.010376978665590286	-0.024419546127319336	-0.011187493801116943	0.04358300194144249	-0.022133219987154007	-0.030241025611758232	0.013536598533391953	-0.01142866536974907	0.02331439033150673	-0.043439485132694244	-0.02558295801281929	0.014337729662656784	-0.02857058122754097	0.04256690666079521	-0.008976660668849945	0.0099099762737751	-0.037773240357637405	0.0354897640645504	-0.044191014021635056	-0.0065174587070941925	-0.014030087739229202	-0.019319403916597366	-0.0441548228263855	-0.03043341636657715	-0.017303965985774994	0.0027409791946411133	-0.021366167813539505	0.03703809157013893	0.03259027376770973	-0.02775561809539795	0.008877526968717575	0.0031711235642433167	-0.014605961740016937	-0.03184743970632553	0.019090447574853897	-0.026479482650756836	-0.006379891186952591	0.04550142213702202	-0.04426919296383858	-0.04590572044253349	0.008125163614749908	0.010094918310642242	-0.040860533714294434	0.0025789961218833923	0.02698810026049614	0.02338123694062233	0.03318769857287407	-0.02052389457821846	0.007858537137508392	0.011870205402374268	-0.008456658571958542	0.04272879287600517	0.023439157754182816	-0.0035145506262779236	-0.04547476768493652	0.046749744564294815	0.01446307823061943	-0.045155443251132965	0.03192732110619545	0.04490938410162926	-0.027704453095793724	-0.018724285066127777	0.0013959407806396484	-0.035500288009643555	-0.03496818616986275	0.044658686965703964	-0.005186926573514938	0.02981884405016899	0.04418650642037392	-0.0206777211278677	-0.030924761667847633	0.04440842941403389	0.024682212620973587	0.045623186975717545	-0.040213692933321	-0.01165316253900528	0.005543313920497894	0.01922503486275673	-0.015700221061706543	0.0361156202852726	0.02461475506424904
